{"learner":{"attributes":{"scikit_learn":"{\"_estimator_type\": \"classifier\"}"},"feature_names":[],"feature_types":[],"gradient_booster":{"model":{"cats":{"enc":[],"feature_segments":[],"sorted_idx":[]},"gbtree_model_param":{"num_parallel_tree":"1","num_trees":"100"},"iteration_indptr":[0,1,2,3,4,5,6,7,8,9,10,11,12,13,14,15,16,17,18,19,20,21,22,23,24,25,26,27,28,29,30,31,32,33,34,35,36,37,38,39,40,41,42,43,44,45,46,47,48,49,50,51,52,53,54,55,56,57,58,59,60,61,62,63,64,65,66,67,68,69,70,71,72,73,74,75,76,77,78,79,80,81,82,83,84,85,86,87,88,89,90,91,92,93,94,95,96,97,98,99,100],"tree_info":[0,0,0,0,0,0,0,0,0,0,0,0,0,0,0,0,0,0,0,0,0,0,0,0,0,0,0,0,0,0,0,0,0,0,0,0,0,0,0,0,0,0,0,0,0,0,0,0,0,0,0,0,0,0,0,0,0,0,0,0,0,0,0,0,0,0,0,0,0,0,0,0,0,0,0,0,0,0,0,0,0,0,0,0,0,0,0,0,0,0,0,0,0,0,0,0,0,0,0,0],"trees":[{"base_weights":[8.769464E-8,6.84004E-2,-1.2379247E-1,1.6553096E-1,-5.912717E-2,-3.8928923E-1,-2.1933163E-2,-2.567956E-1,2.3742464E-1,9.044121E-3,-4.7279975E-1,-1.7513072E-2,-6.1922026E-1,4.837368E-2,-5.282406E-1,2.4398495E-1,-5.2773553E-1,4.5991728E-1,9.681097E-2,-7.7444956E-2,4.194365E-1,-7.9466E-1,1.1739631E-1,2.99732E-1,-7.569982E-1,8.5752755E-2,-8.1810504E-1,8.693939E-2,-9.1853285E-1,8.762238E-1,-6.71092E-1,-3.598572E-1,1.0405499E0,1.3358557E-2,-8.749866E-1,5.6137854E-1,-9.588601E-2,-4.1920815E-2,3.6226562E-1,-1.9826948E-4,-6.3005173E-1,1.2549876E0,1.5060936E-1,3.0903736E-2,-1.0833342E0,7.699876E-1,-6.006782E-1,9.0830064E-1,-2.416367E-1,-1.1823412E0,6.629195E-1,-9.229365E-1,5.598361E-1,2.6625803E-1,-9.2399305E-1,8.213573E-1,3.8064413E-2,3.5995612E-1,-1.3887756E0,4.6561855E-1,-1.6449597E-1,6.168131E-1,-8.3936816E-1,-2.3460944E-1,3.2616958E-1,4.4319656E-1,-1.7750362E-1,-1.268692E-1,3.665678E-1,3.9910138E-1,-3.0502185E-1,2.5876316E-1,7.9046115E-2,1.4397073E-1,-2.9158685E-1,1.9204233E-2,-2.0690764E-1,2.0484953E-1,1.6188065E-2,-7.483225E-2,4.7722E-2,-8.452266E-2,-4.0771645E-1,4.5078096E-1,-2.0090066E-1,4.0342864E-1,-2.5982982E-2,3.1883144E-1,-2.9149967E-1,-4.0475368E-1,-6.121526E-2,-3.0090103E-1,3.3208492E-1,2.38921E-1,-3.6707363E-1,3.754588E-1,-2.0109367E-1,1.4874716E-1,-2.5581485E-1,-4.2480204E-1,3.3258432E-1,-3.3408427E-1,4.094622E-1,2.718691E-1,-4.4117194E-1,3.5877168E-1,-8.228549E-2,2.6780292E-1,-4.0090135E-1,1.6253252E-1,-3.0315334E-1,3.959111E-1,-2.979297E-2,-3.1889266E-1,2.1932617E-2,4.1445148E-1,-2.3170465E-1,3.9010167E-2,-5.426842E-1,-3.6081108E-1,3.901908E-1,-3.2892585E-1,3.706296E-2],"categories":[],"categories_nodes":[],"categories_segments":[],"categories_sizes":[],"default_left":[0,0,0,0,0,0,0,0,0,0,0,0,0,0,0,0,0,0,0,0,0,0,0,0,0,0,0,0,0,0,0,0,0,0,0,0,0,0,0,0,0,0,0,0,0,0,0,0,0,0,0,0,0,0,0,0,0,0,0,0,0,0,0,0,0,0,0,0,0,0,0,0,0,0,0,0,0,0,0,0,0,0,0,0,0,0,0,0,0,0,0,0,0,0,0,0,0,0,0,0,0,0,0,0,0,0,0,0,0,0,0,0,0,0,0,0,0,0,0,0,0,0,0],"id":0,"left_children":[1,3,5,7,9,11,13,15,17,19,21,23,25,27,29,31,33,35,37,39,41,43,45,47,49,51,53,55,57,59,61,63,65,67,69,71,73,75,77,79,81,83,85,87,89,91,93,95,97,99,101,103,105,107,109,111,113,115,117,-1,-1,119,121,-1,-1,-1,-1,-1,-1,-1,-1,-1,-1,-1,-1,-1,-1,-1,-1,-1,-1,-1,-1,-1,-1,-1,-1,-1,-1,-1,-1,-1,-1,-1,-1,-1,-1,-1,-1,-1,-1,-1,-1,-1,-1,-1,-1,-1,-1,-1,-1,-1,-1,-1,-1,-1,-1,-1,-1,-1,-1,-1,-1],"loss_changes":[1.6951746E1,1.598252E1,1.9259724E1,2.2293875E1,1.5747177E1,1.6871939E1,1.839345E1,1.4646604E1,1.9547924E1,1.7078613E1,1.5100107E1,1.8173555E1,1.7175503E1,1.7009174E1,1.32276325E1,1.8772587E1,1.3117336E1,1.3714848E1,1.419351E1,1.6967888E1,1.8622717E1,1.2247265E1,1.3934962E1,1.8092596E1,1.4825614E1,1.37867565E1,1.1182659E1,1.5672567E1,1.1020851E1,6.8682537E0,1.3033466E1,1.4595966E1,1.2815313E1,1.5410911E1,1.4638512E1,1.8164124E1,1.9760836E1,1.7456795E1,1.3033651E1,1.3923726E1,1.1995575E1,1.0656843E1,1.8387684E1,1.5774482E1,8.607262E0,1.0370406E1,1.3375362E1,1.4790846E1,1.3716816E1,1.1339296E1,9.002186E0,1.0598532E1,1.0673868E1,1.0478908E1,1.1580353E1,1.26336E1,1.5945786E1,7.4288535E0,8.531275E0,0E0,0E0,1.0584887E1,1.2882549E1,0E0,0E0,0E0,0E0,0E0,0E0,0E0,0E0,0E0,0E0,0E0,0E0,0E0,0E0,0E0,0E0,0E0,0E0,0E0,0E0,0E0,0E0,0E0,0E0,0E0,0E0,0E0,0E0,0E0,0E0,0E0,0E0,0E0,0E0,0E0,0E0,0E0,0E0,0E0,0E0,0E0,0E0,0E0,0E0,0E0,0E0,0E0,0E0,0E0,0E0,0E0,0E0,0E0,0E0,0E0,0E0,0E0,0E0,0E0,0E0],"parents":[2147483647,0,0,1,1,2,2,3,3,4,4,5,5,6,6,7,7,8,8,9,9,10,10,11,11,12,12,13,13,14,14,15,15,16,16,17,17,18,18,19,19,20,20,21,21,22,22,23,23,24,24,25,25,26,26,27,27,28,28,29,29,30,30,31,31,32,32,33,33,34,34,35,35,36,36,37,37,38,38,39,39,40,40,41,41,42,42,43,43,44,44,45,45,46,46,47,47,48,48,49,49,50,50,51,51,52,52,53,53,54,54,55,55,56,56,57,57,58,58,61,61,62,62],"right_children":[2,4,6,8,10,12,14,16,18,20,22,24,26,28,30,32,34,36,38,40,42,44,46,48,50,52,54,56,58,60,62,64,66,68,70,72,74,76,78,80,82,84,86,88,90,92,94,96,98,100,102,104,106,108,110,112,114,116,118,-1,-1,120,122,-1,-1,-1,-1,-1,-1,-1,-1,-1,-1,-1,-1,-1,-1,-1,-1,-1,-1,-1,-1,-1,-1,-1,-1,-1,-1,-1,-1,-1,-1,-1,-1,-1,-1,-1,-1,-1,-1,-1,-1,-1,-1,-1,-1,-1,-1,-1,-1,-1,-1,-1,-1,-1,-1,-1,-1,-1,-1,-1,-1],"split_conditions":[3.544861E-1,1.6435535E-1,-6.095463E-1,-1.046118E0,1.1233922E0,-2.8580037E-1,1.1744798E0,-4.3960357E-1,-2.7998957E-1,8.7667435E-1,4.5286807E-1,4.8598835E-1,-8.870328E-1,1.8767426E0,-1.5092834E0,7.046783E-2,-8.273356E-2,1.0950525E0,4.290666E-1,1.1500881E0,-7.101541E-1,-6.136217E-1,1.7831898E-1,5.560868E-2,7.241091E-1,-3.3825818E-1,-1.4882739E0,-1.5924544E0,-6.9251347E-1,1.9917586E-1,-1.3499024E0,8.6352277E-1,7.598474E-1,7.0777E-1,-1.2152969E0,-2.4360191E-2,9.2789374E-2,1.0602653E0,-6.229546E-2,-3.030562E-1,5.321866E-1,1.1949427E0,-1.1008791E0,-1.6396102E-1,5.553317E-1,-1.3240789E0,-6.137132E-1,6.718865E-1,-3.8805813E-1,1.0306182E0,-5.936846E-1,-8.193346E-1,6.1779663E-2,8.728451E-1,-1.6482241E0,4.788014E-1,-1.79076E0,-1.1922325E-1,-4.1685787E-1,4.6561855E-1,-1.6449597E-1,-6.5440595E-1,8.3922887E-1,-2.3460944E-1,3.2616958E-1,4.4319656E-1,-1.7750362E-1,-1.268692E-1,3.665678E-1,3.9910138E-1,-3.0502185E-1,2.5876316E-1,7.9046115E-2,1.4397073E-1,-2.9158685E-1,1.9204233E-2,-2.0690764E-1,2.0484953E-1,1.6188065E-2,-7.483225E-2,4.7722E-2,-8.452266E-2,-4.0771645E-1,4.5078096E-1,-2.0090066E-1,4.0342864E-1,-2.5982982E-2,3.1883144E-1,-2.9149967E-1,-4.0475368E-1,-6.121526E-2,-3.0090103E-1,3.3208492E-1,2.38921E-1,-3.6707363E-1,3.754588E-1,-2.0109367E-1,1.4874716E-1,-2.5581485E-1,-4.2480204E-1,3.3258432E-1,-3.3408427E-1,4.094622E-1,2.718691E-1,-4.4117194E-1,3.5877168E-1,-8.228549E-2,2.6780292E-1,-4.0090135E-1,1.6253252E-1,-3.0315334E-1,3.959111E-1,-2.979297E-2,-3.1889266E-1,2.1932617E-2,4.1445148E-1,-2.3170465E-1,3.9010167E-2,-5.426842E-1,-3.6081108E-1,3.901908E-1,-3.2892585E-1,3.706296E-2],"split_indices":[445,432,224,741,315,179,560,365,194,506,485,553,687,497,797,473,736,63,244,434,335,23,766,256,344,310,623,412,794,25,545,585,169,287,707,358,187,49,146,95,369,357,453,66,649,59,675,518,782,275,498,195,542,219,502,80,639,239,172,0,0,625,751,0,0,0,0,0,0,0,0,0,0,0,0,0,0,0,0,0,0,0,0,0,0,0,0,0,0,0,0,0,0,0,0,0,0,0,0,0,0,0,0,0,0,0,0,0,0,0,0,0,0,0,0,0,0,0,0,0,0,0,0],"split_type":[0,0,0,0,0,0,0,0,0,0,0,0,0,0,0,0,0,0,0,0,0,0,0,0,0,0,0,0,0,0,0,0,0,0,0,0,0,0,0,0,0,0,0,0,0,0,0,0,0,0,0,0,0,0,0,0,0,0,0,0,0,0,0,0,0,0,0,0,0,0,0,0,0,0,0,0,0,0,0,0,0,0,0,0,0,0,0,0,0,0,0,0,0,0,0,0,0,0,0,0,0,0,0,0,0,0,0,0,0,0,0,0,0,0,0,0,0,0,0,0,0,0,0],"sum_hessian":[1.9999899E3,1.2884935E3,7.114964E2,7.312463E2,5.572472E2,1.9649901E2,5.149974E2,1.05999466E2,6.252468E2,4.7924756E2,7.79996E1,7.549962E1,1.2099939E2,4.529977E2,6.1999687E1,3.7249813E1,6.874965E1,2.4124878E2,3.8399805E2,3.96498E2,8.274958E1,5.0249744E1,2.7749859E1,5.324973E1,2.2249887E1,2.6749865E1,9.424952E1,4.364978E2,1.6499916E1,5.2499733E0,5.6749714E1,2.1499891E1,1.574992E1,2.7249863E1,4.149979E1,2.0399896E2,3.7249813E1,2.5274872E2,1.3124933E2,3.4874823E2,4.774976E1,1.9249903E1,6.349968E1,1.3249933E1,3.6999813E1,1.4499927E1,1.3249933E1,2.4749874E1,2.8499855E1,1.7249912E1,4.9999747E0,8.249958E0,1.8499907E1,8.249958E0,8.5999565E1,2.6249866E1,4.1024792E2,4.499977E0,1.1999939E1,3.4999824E0,1.7499912E0,6.2499685E0,5.0499744E1,1.6999914E1,4.499977E0,1.2499937E1,3.2499835E0,2.0499897E1,6.7499657E0,1.9999899E0,3.94998E1,1.0049949E2,1.0349947E2,2.2749886E1,1.4499927E1,2.179989E2,3.4749825E1,6.3749676E1,6.749966E1,1.3574931E2,2.1299892E2,3.3249832E1,1.4499927E1,1.7249912E1,1.9999899E0,9.74995E0,5.374973E1,6.499967E0,6.7499657E0,2.7999859E1,8.999954E0,1.9999899E0,1.2499937E1,3.9999797E0,9.249953E0,2.0499897E1,4.2499785E0,1.2999934E1,1.5499922E1,1.5999919E1,1.2499937E0,1.2499937E0,3.749981E0,1.7499912E0,6.499967E0,1.02499485E1,8.249958E0,6.2499685E0,1.9999899E0,4.499977E0,8.149959E1,1.6749916E1,9.499952E0,1.1749941E1,3.98498E2,2.2499886E0,2.2499886E0,2.7499862E0,9.249953E0,1.4999924E0,4.749976E0,3.9749798E1,1.0749946E1],"tree_param":{"num_deleted":"0","num_feature":"801","num_nodes":"123","size_leaf_vector":"1"}},{"base_weights":[1.3034245E-5,-1.9914271E-1,3.700957E-2,-1.0538477E-1,-7.6249695E-1,1.1697108E-2,3.645614E-1,-3.270174E-2,-1.001312E0,4.014245E-1,-8.933288E-1,-3.137187E-1,3.959512E-2,5.933679E-1,-1.2729213E-1,1.296044E-1,-4.6887043E-1,-1.3524984E0,9.05998E-1,5.140204E-1,-1.1279781E0,1.245418E0,-3.8670743E-1,-5.299432E-1,5.6576844E-2,1.1099386E0,1.8667221E-1,-8.480589E-1,3.1842655E-1,1.8892998E-1,-1.4451504E0,-6.508807E-1,7.232759E-1,-1.5504751E0,2.0337619E-1,5.4905966E-2,3.5554138E-1,4.0776986E-1,-2.9698825E-1,3.124892E-1,-1.2338731E0,4.5230922E-1,4.9241286E-2,1.1477711E0,-4.6079168E-1,-7.2460496E-1,1.1396648E0,-1.4752235E-1,1.02143E-1,-2.297621E-1,1.2573193E0,-4.0673366E-1,3.6005136E-1,6.063838E-1,-1.3309952E0,1.0380282E0,-5.168265E-1,7.81186E-2,-3.1956658E-1,-7.4263856E-2,-5.001751E-1,-5.497397E-2,-3.3224654E-1,-2.706127E-1,3.627873E-1,-5.108957E-1,4.6640925E-2,2.3557308E-1,-4.0374008E-1,4.6952274E-1,-6.157737E-2,1.7593852E-1,-1.7404437E-1,-3.23402E-1,7.5137034E-2,4.329245E-1,4.59394E-2,-1.1801527E-1,4.180881E-2,1.8595523E-1,2.3997068E-2,4.125372E-1,-2.3131414E-1,1.940058E-1,-2.1904907E-1,-2.0580468E-1,3.9432624E-1,-4.832816E-1,1.0549023E-1,4.4456923E-1,-9.107612E-2,1.56265E-1,-3.9220577E-1],"categories":[],"categories_nodes":[],"categories_segments":[],"categories_sizes":[],"default_left":[0,0,0,0,0,0,0,0,0,0,0,0,0,0,0,0,0,0,0,0,0,0,0,0,0,0,0,0,0,0,0,0,0,0,0,0,0,0,0,0,0,0,0,0,0,0,0,0,0,0,0,0,0,0,0,0,0,0,0,0,0,0,0,0,0,0,0,0,0,0,0,0,0,0,0,0,0,0,0,0,0,0,0,0,0,0,0,0,0,0,0,0,0],"id":1,"left_children":[1,3,5,7,9,11,13,15,17,-1,19,21,23,25,27,29,31,33,35,37,39,41,43,45,47,49,51,53,55,57,59,61,63,65,-1,-1,-1,-1,-1,-1,67,-1,-1,69,71,73,75,77,79,-1,81,-1,83,85,87,89,91,-1,-1,-1,-1,-1,-1,-1,-1,-1,-1,-1,-1,-1,-1,-1,-1,-1,-1,-1,-1,-1,-1,-1,-1,-1,-1,-1,-1,-1,-1,-1,-1,-1,-1,-1,-1],"loss_changes":[1.4618774E1,1.6337471E1,1.3868792E1,1.739579E1,1.3339676E1,1.4122542E1,1.3579722E1,1.7659359E1,1.465509E1,0E0,1.4515137E1,1.446034E1,1.3883844E1,1.7035486E1,1.2773897E1,1.7272135E1,1.5146366E1,8.018633E0,5.331292E-1,9.884519E0,9.666821E0,1.3775978E0,1.3955305E1,1.4336231E1,1.295917E1,1.0901943E1,1.309016E1,1.1444984E1,1.5428315E1,1.6073158E1,1.3751516E0,1.2438345E1,8.541483E0,4.4529305E0,0E0,0E0,0E0,0E0,0E0,0E0,9.021069E0,0E0,0E0,3.5542846E0,1.451235E1,1.3309282E1,1.1946263E0,1.8000935E1,1.3006402E1,0E0,9.115494E0,0E0,1.3956711E1,4.9849644E0,6.0695133E0,8.573739E0,1.0635235E1,0E0,0E0,0E0,0E0,0E0,0E0,0E0,0E0,0E0,0E0,0E0,0E0,0E0,0E0,0E0,0E0,0E0,0E0,0E0,0E0,0E0,0E0,0E0,0E0,0E0,0E0,0E0,0E0,0E0,0E0,0E0,0E0,0E0,0E0,0E0,0E0],"parents":[2147483647,0,0,1,1,2,2,3,3,4,4,5,5,6,6,7,7,8,8,10,10,11,11,12,12,13,13,14,14,15,15,16,16,17,17,18,18,19,19,20,20,21,21,22,22,23,23,24,24,25,25,26,26,27,27,28,28,29,29,30,30,31,31,32,32,33,33,40,40,43,43,44,44,45,45,46,46,47,47,48,48,50,50,52,52,53,53,54,54,55,55,56,56],"right_children":[2,4,6,8,10,12,14,16,18,-1,20,22,24,26,28,30,32,34,36,38,40,42,44,46,48,50,52,54,56,58,60,62,64,66,-1,-1,-1,-1,-1,-1,68,-1,-1,70,72,74,76,78,80,-1,82,-1,84,86,88,90,92,-1,-1,-1,-1,-1,-1,-1,-1,-1,-1,-1,-1,-1,-1,-1,-1,-1,-1,-1,-1,-1,-1,-1,-1,-1,-1,-1,-1,-1,-1,-1,-1,-1,-1,-1,-1],"split_conditions":[-1.0235759E0,1.0833527E0,1.4748044E0,1.5498719E0,-1.8195393E0,-1.4133258E0,5.928562E-1,5.785137E-1,8.6746E-1,4.014245E-1,-1.1872077E0,-1.9095024E0,-1.9130384E0,-1.9503891E-1,-3.0193093E-1,1.652347E0,1.1115602E0,1.5027888E0,-4.913752E-1,2.3208883E-1,-2.2287488E0,6.4547616E-1,-1.7666248E0,1.2609876E0,-8.9274275E-1,-1.6006308E0,-1.3692794E0,-9.4177794E-1,1.5943629E-1,1.513163E0,-5.745323E-1,-9.123487E-2,-6.570317E-1,1.7010943E0,2.0337619E-1,5.4905966E-2,3.5554138E-1,4.0776986E-1,-2.9698825E-1,3.124892E-1,-1.8633311E0,4.5230922E-1,4.9241286E-2,4.0236306E-1,-1.2854296E0,5.9680045E-1,6.326358E-1,1.4689472E-1,-1.6943432E0,-2.297621E-1,1.7928402E0,-4.0673366E-1,8.6081594E-1,2.4160301E-2,8.2262236E-1,8.300015E-1,-4.0692008E-1,7.81186E-2,-3.1956658E-1,-7.4263856E-2,-5.001751E-1,-5.497397E-2,-3.3224654E-1,-2.706127E-1,3.627873E-1,-5.108957E-1,4.6640925E-2,2.3557308E-1,-4.0374008E-1,4.6952274E-1,-6.157737E-2,1.7593852E-1,-1.7404437E-1,-3.23402E-1,7.5137034E-2,4.329245E-1,4.59394E-2,-1.1801527E-1,4.180881E-2,1.8595523E-1,2.3997068E-2,4.125372E-1,-2.3131414E-1,1.940058E-1,-2.1904907E-1,-2.0580468E-1,3.9432624E-1,-4.832816E-1,1.0549023E-1,4.4456923E-1,-9.107612E-2,1.56265E-1,-3.9220577E-1],"split_indices":[185,377,410,733,460,314,781,651,98,0,1,93,721,308,164,508,195,374,264,408,308,46,287,235,684,624,310,667,458,292,123,52,522,144,0,0,0,0,0,0,462,0,0,53,194,2,171,203,365,0,206,0,609,221,748,363,441,0,0,0,0,0,0,0,0,0,0,0,0,0,0,0,0,0,0,0,0,0,0,0,0,0,0,0,0,0,0,0,0,0,0,0,0],"split_type":[0,0,0,0,0,0,0,0,0,0,0,0,0,0,0,0,0,0,0,0,0,0,0,0,0,0,0,0,0,0,0,0,0,0,0,0,0,0,0,0,0,0,0,0,0,0,0,0,0,0,0,0,0,0,0,0,0,0,0,0,0,0,0,0,0,0,0,0,0,0,0,0,0,0,0,0,0,0,0,0,0,0,0,0,0,0,0,0,0,0,0,0,0],"sum_hessian":[1.9820701E3,3.098322E2,1.6722379E3,2.6664252E2,4.3189716E1,1.5532426E3,1.1899535E2,2.4759277E2,1.904972E1,1.99127E0,4.119845E1,1.218366E2,1.431406E3,8.1073975E1,3.7921383E1,1.8095796E2,6.663482E1,1.6333227E1,2.7164936E0,5.717309E0,3.548114E1,4.730192E0,1.17106415E2,4.0569416E1,1.3908365E3,3.4951115E1,4.6122856E1,1.4144993E1,2.377639E1,1.7523633E2,5.7216353E0,5.820277E1,8.43205E0,1.5097516E1,1.2357115E0,1.2178619E0,1.4986317E0,3.7219043E0,1.9954047E0,1.2399642E0,3.4241173E1,3.4894218E0,1.2407702E0,4.725992E0,1.1238042E2,3.6840176E1,3.7292395E0,2.5343172E2,1.1374048E3,2.2403338E0,3.271078E1,3.9714546E0,4.21514E1,3.4622457E0,1.0682747E1,1.2642035E1,1.1134355E1,1.6653882E2,8.697511E0,1.2259037E0,4.4957314E0,2.94465E1,2.8756271E1,1.743958E0,6.6880918E0,1.3860159E1,1.2373575E0,1.4824653E0,3.275871E1,3.4921992E0,1.2337929E0,1.1097279E1,1.0128314E2,2.6962355E1,9.877823E0,2.498136E0,1.2311034E0,1.3627347E2,1.1715825E2,4.5565426E1,1.0918394E3,3.1219645E1,1.4911362E0,3.369839E1,8.453009E0,1.2364397E0,2.225806E0,9.1954775E0,1.4872696E0,9.420672E0,3.2213616E0,4.9619637E0,6.172391E0],"tree_param":{"num_deleted":"0","num_feature":"801","num_nodes":"93","size_leaf_vector":"1"}},{"base_weights":[5.3214033E-5,-2.0674045E-1,3.0741746E-2,-2.7607226E-1,5.4345E-1,3.0246735E-1,3.7665379E-3,-3.2534513E-1,8.733859E-1,-5.6604725E-1,1.0090533E0,-4.9149774E-2,5.920358E-1,-5.767925E-1,1.8207349E-2,1.5513879E-1,-4.50129E-1,1.3273119E0,-2.453155E-1,4.845419E-1,-4.3112496E-1,-2.9307505E-1,1.2414566E0,1.1821308E0,-2.7937564E-1,9.3912554E-1,-4.8626836E-2,4.0919793E-1,-8.8956594E-1,-7.977201E-2,1.0241223E-1,3.578502E-1,-1.0843923E0,-5.9876555E-1,6.901955E-2,-8.484841E-2,4.9619958E-1,3.767383E-1,-2.0272996E-1,1.5001733E0,-1.3149936E-1,1.4840341E0,-2.1346445E-1,-1.1186961E0,-2.5255963E-2,-1.614845E-1,1.1330142E0,9.978017E-1,-5.166019E-1,-3.6320764E-1,8.3964765E-1,-1.0820119E0,3.0314523E-1,4.6449885E-2,-2.4089633E-1,1.6549233E-1,-2.4038772E-1,-2.0019524E-1,1.9135556E-1,1.007284E-1,-4.6150398E-1,-2.1063094E-1,1.4934033E-1,-1.5088531E-1,2.1531062E-1,-7.485827E-2,5.114327E-1,5.22152E-1,-6.402489E-2,-4.2593446E-1,3.299504E-1,1.3555618E-1,-2.12395E-1,2.990613E-1,-3.6765584E-1,3.884425E-1,-8.3759174E-2,-2.5921115E-1,4.2978352E-1,-3.840896E-1,8.3597004E-2,-1.07882015E-1,4.4149193E-1,2.6417184E-1,-3.7552127E-1,1.3321818E-1,-1.3803987E-2,-1.0173508E-1,9.2644766E-2,6.531455E-2,-8.672646E-2,1.1595581E-2,-2.0775501E-1],"categories":[],"categories_nodes":[],"categories_segments":[],"categories_sizes":[],"default_left":[0,0,0,0,0,0,0,0,0,0,0,0,0,0,0,0,0,0,0,0,0,0,0,0,0,0,0,0,0,0,0,0,0,0,0,0,0,0,0,0,0,0,0,0,0,0,0,0,0,0,0,0,0,0,0,0,0,0,0,0,0,0,0,0,0,0,0,0,0,0,0,0,0,0,0,0,0,0,0,0,0,0,0,0,0,0,0,0,0,0,0,0,0],"id":2,"left_children":[1,3,5,7,9,11,13,15,17,19,21,23,25,27,29,31,33,35,-1,37,-1,-1,39,41,43,45,47,49,51,53,55,57,59,61,63,-1,-1,-1,-1,65,-1,67,-1,69,71,73,75,77,79,-1,81,83,-1,85,87,89,91,-1,-1,-1,-1,-1,-1,-1,-1,-1,-1,-1,-1,-1,-1,-1,-1,-1,-1,-1,-1,-1,-1,-1,-1,-1,-1,-1,-1,-1,-1,-1,-1,-1,-1,-1,-1],"loss_changes":[1.2512404E1,1.3401885E1,1.2583147E1,1.3531149E1,1.1880102E1,1.5814209E1,1.3112781E1,1.3560507E1,8.673736E0,7.204397E0,8.495918E0,2.043946E1,1.896802E1,1.2070763E1,1.2597028E1,1.2230735E1,1.3844147E1,4.767766E0,0E0,4.402698E0,0E0,0E0,6.9882565E0,7.5539274E0,1.2891207E1,1.1971462E1,1.5624059E1,7.868577E0,1.17463665E1,1.4365515E1,1.7794056E1,1.22690525E1,4.9472036E0,1.6119118E1,1.5465848E1,0E0,0E0,0E0,0E0,5.0252514E0,0E0,4.780283E0,0E0,1.0949318E1,1.5798427E1,1.2498604E1,1.1121658E1,9.232155E0,1.370451E1,0E0,6.8610334E0,1.00751095E1,0E0,1.460147E1,1.68534E1,1.6539062E1,1.6176981E1,0E0,0E0,0E0,0E0,0E0,0E0,0E0,0E0,0E0,0E0,0E0,0E0,0E0,0E0,0E0,0E0,0E0,0E0,0E0,0E0,0E0,0E0,0E0,0E0,0E0,0E0,0E0,0E0,0E0,0E0,0E0,0E0,0E0,0E0,0E0,0E0],"parents":[2147483647,0,0,1,1,2,2,3,3,4,4,5,5,6,6,7,7,8,8,9,9,10,10,11,11,12,12,13,13,14,14,15,15,16,16,17,17,19,19,22,22,23,23,24,24,25,25,26,26,27,27,28,28,29,29,30,30,31,31,32,32,33,33,34,34,39,39,41,41,43,43,44,44,45,45,46,46,47,47,48,48,50,50,51,51,53,53,54,54,55,55,56,56],"right_children":[2,4,6,8,10,12,14,16,18,20,22,24,26,28,30,32,34,36,-1,38,-1,-1,40,42,44,46,48,50,52,54,56,58,60,62,64,-1,-1,-1,-1,66,-1,68,-1,70,72,74,76,78,80,-1,82,84,-1,86,88,90,92,-1,-1,-1,-1,-1,-1,-1,-1,-1,-1,-1,-1,-1,-1,-1,-1,-1,-1,-1,-1,-1,-1,-1,-1,-1,-1,-1,-1,-1,-1,-1,-1,-1,-1,-1,-1],"split_conditions":[-1.1273646E0,1.441191E0,-1.3111658E0,1.7033479E0,-5.971592E-1,2.1001494E-2,-1.9831462E0,-8.317229E-1,5.253583E-1,2.3308423E-1,-2.0060704E0,-1.0297459E0,3.755164E-1,-5.767723E-1,-8.866848E-2,9.145844E-1,7.510811E-1,-1.0030057E0,-2.453155E-1,-3.7578788E-1,-4.3112496E-1,-2.9307505E-1,9.8857003E-1,1.0693036E0,-8.4648865E-1,-9.279114E-1,-7.47271E-1,-1.0516291E0,1.549617E0,1.7563862E-1,1.0117224E0,-9.099987E-1,-4.4933584E-1,1.2941535E0,3.830636E-2,-8.484841E-2,4.9619958E-1,3.767383E-1,-2.0272996E-1,-1.1509118E0,-1.3149936E-1,1.3686785E0,-2.1346445E-1,1.1246023E0,4.00897E-1,-5.2454807E-2,1.1558402E0,-1.0666236E0,9.8617665E-2,-3.6320764E-1,-8.280538E-1,-1.6801467E0,3.0314523E-1,-8.6481816E-1,1.0348732E0,1.2538478E0,3.4667465E-1,-2.0019524E-1,1.9135556E-1,1.007284E-1,-4.6150398E-1,-2.1063094E-1,1.4934033E-1,-1.5088531E-1,2.1531062E-1,-7.485827E-2,5.114327E-1,5.22152E-1,-6.402489E-2,-4.2593446E-1,3.299504E-1,1.3555618E-1,-2.12395E-1,2.990613E-1,-3.6765584E-1,3.884425E-1,-8.3759174E-2,-2.5921115E-1,4.2978352E-1,-3.840896E-1,8.3597004E-2,-1.07882015E-1,4.4149193E-1,2.6417184E-1,-3.7552127E-1,1.3321818E-1,-1.3803987E-2,-1.0173508E-1,9.2644766E-2,6.531455E-2,-8.672646E-2,1.1595581E-2,-2.0775501E-1],"split_indices":[159,724,736,469,66,429,224,555,411,316,217,14,403,411,534,393,689,41,0,286,0,0,440,223,501,535,655,351,272,133,535,497,352,268,683,0,0,0,0,428,0,454,0,758,501,541,226,321,23,0,529,439,0,385,51,71,560,0,0,0,0,0,0,0,0,0,0,0,0,0,0,0,0,0,0,0,0,0,0,0,0,0,0,0,0,0,0,0,0,0,0,0,0],"split_type":[0,0,0,0,0,0,0,0,0,0,0,0,0,0,0,0,0,0,0,0,0,0,0,0,0,0,0,0,0,0,0,0,0,0,0,0,0,0,0,0,0,0,0,0,0,0,0,0,0,0,0,0,0,0,0,0,0,0,0,0,0,0,0,0,0,0,0,0,0,0,0,0,0,0,0,0,0,0,0,0,0,0,0,0,0,0,0,0,0,0,0,0,0],"sum_hessian":[1.9696378E3,2.5378424E2,1.7158535E3,2.3289255E2,2.0891687E1,1.5403377E2,1.5618198E3,2.2400717E2,8.885373E0,6.1118608E0,1.4779827E1,6.993878E1,8.4094986E1,3.696067E1,1.5248591E3,4.613186E1,1.7787532E2,7.17467E0,1.7107029E0,2.971518E0,3.1403427E0,1.212766E0,1.356706E1,1.0365888E1,5.957289E1,5.4242393E1,2.9852594E1,8.826772E0,2.8133898E1,7.048086E2,8.2005054E2,4.0259216E1,5.8726406E0,1.3816435E2,3.9710968E1,1.2328041E0,5.941866E0,1.7355869E0,1.2359313E0,1.18490305E1,1.7180303E0,9.127105E0,1.2387834E0,1.3054275E1,4.6518616E1,8.149403E0,4.609299E1,8.875073E0,2.097752E1,1.4725556E0,7.354216E0,2.5937374E1,2.1965237E0,3.9560806E2,3.0920053E2,6.9303876E2,1.27011795E2,8.340169E0,3.1919048E1,1.4855616E0,4.3870792E0,1.26594185E2,1.15701685E1,2.1222689E1,1.8488277E1,1.2175258E0,1.0631505E1,7.9070415E0,1.2200626E0,1.1811346E1,1.2429283E0,2.7581806E1,1.893681E1,3.9319887E0,4.2174144E0,4.1429623E1,4.6633673E0,1.4933686E0,7.381705E0,1.0389979E1,1.0587542E1,2.6867995E0,4.6674166E0,1.7311693E0,2.4206205E1,7.392269E1,3.2168536E2,2.6265363E2,4.6546894E1,6.220929E2,7.094582E1,7.9105125E1,4.7906666E1],"tree_param":{"num_deleted":"0","num_feature":"801","num_nodes":"93","size_leaf_vector":"1"}},{"base_weights":[4.2415693E-5,-5.7294924E-2,1.05638E-1,-9.46788E-2,2.7227908E-1,5.1885832E-2,4.7044683E-1,4.3272573E-1,-1.22068875E-1,4.9104363E-1,-2.5775722E-1,1.2967874E-1,-2.4577011E-1,6.4880014E-3,7.915582E-1,-6.562018E-1,7.091888E-1,-4.652458E-1,-8.701211E-2,6.438581E-1,-5.5422443E-1,-1.2036204E0,1.5562065E-1,4.3418863E-1,3.200908E-2,2.8767192E-1,-4.6413365E-1,-6.761312E-1,4.8741782E-1,8.875662E-1,-3.8214874E-1,9.726313E-1,-1.2871313E0,9.22783E-1,-3.537667E-1,3.4356576E-1,-6.449724E-1,2.7356726E-1,-1.251992E-1,9.719395E-1,1.5339586E-1,-1.4232656E0,4.8869818E-1,1.0678202E-1,-1.5562918E0,7.858459E-1,-5.8653706E-1,1.2813077E-2,7.033071E-1,4.3747076E-1,-5.166973E-2,-1.3643125E-1,1.0045975E0,-8.830953E-1,-7.896808E-2,4.7814417E-1,-1.1269717E0,-3.984567E-1,1.0210222E0,1.0955708E0,-2.2165886E-1,3.6515403E-1,6.497865E-2,-5.0340694E-1,1.3248032E-1,4.3295923E-1,1.1105309E-1,-3.4426904E-1,2.1320318E-1,2.4112028E-1,-3.089448E-1,-8.0639005E-2,-3.6255398E-1,-1.3278778E-1,1.3769141E-1,-3.0764962E-2,-2.4608666E-1,-3.4288412E-1,3.1854126E-1,1.5052347E-1,-3.467577E-1,-4.7952503E-2,-4.999118E-1,3.5985795E-1,-3.296482E-1,-5.2144265E-1,-4.218444E-2,3.521877E-1,-3.162435E-1,-3.0211258E-1,3.7050492E-1,-2.575025E-1,1.1853689E-1,2.5228518E-1,-1.00287184E-1,-1.0492357E-1,2.0437877E-1,4.722547E-2,-7.537067E-2,1.2681627E-1,-3.175735E-1,-2.3632891E-1,4.0921575E-1,1.3925996E-1,-3.3029684E-1,1.8081787E-1,-1.6436419E-1,4.1676205E-1,-2.57289E-1,-4.2012608E-1,1.9409125E-1,-3.7214363E-1,2.0077212E-1,4.0331832E-1,-1.548349E-1,-1.8390232E-1,3.782598E-1,-3.0315834E-1,3.0193123E-1],"categories":[],"categories_nodes":[],"categories_segments":[],"categories_sizes":[],"default_left":[0,0,0,0,0,0,0,0,0,0,0,0,0,0,0,0,0,0,0,0,0,0,0,0,0,0,0,0,0,0,0,0,0,0,0,0,0,0,0,0,0,0,0,0,0,0,0,0,0,0,0,0,0,0,0,0,0,0,0,0,0,0,0,0,0,0,0,0,0,0,0,0,0,0,0,0,0,0,0,0,0,0,0,0,0,0,0,0,0,0,0,0,0,0,0,0,0,0,0,0,0,0,0,0,0,0,0,0,0,0,0,0,0,0,0,0,0,0,0],"id":3,"left_children":[1,3,5,7,9,11,13,15,17,19,21,23,25,27,29,31,33,35,37,39,41,43,45,47,49,51,53,55,57,59,-1,61,63,65,67,69,71,73,75,77,79,81,83,-1,85,87,89,91,93,95,97,99,101,103,105,107,109,111,113,115,117,-1,-1,-1,-1,-1,-1,-1,-1,-1,-1,-1,-1,-1,-1,-1,-1,-1,-1,-1,-1,-1,-1,-1,-1,-1,-1,-1,-1,-1,-1,-1,-1,-1,-1,-1,-1,-1,-1,-1,-1,-1,-1,-1,-1,-1,-1,-1,-1,-1,-1,-1,-1,-1,-1,-1,-1,-1,-1],"loss_changes":[1.185087E1,1.565514E1,1.3482527E1,1.6521574E1,1.5141414E1,1.3959239E1,1.3154957E1,1.7475798E1,1.3007322E1,1.5052792E1,1.5235632E1,1.4187632E1,1.4690556E1,1.2521832E1,1.1480476E1,1.354323E1,1.0666742E1,1.4800457E1,1.3600676E1,1.2841515E1,1.1818558E1,7.0546894E0,1.3401794E1,1.313199E1,1.2325734E1,1.1361127E1,1.4301006E1,8.745144E0,1.0980873E1,1.1886448E1,0E0,4.590752E-1,6.8574514E0,1.0451584E1,7.8652453E0,1.2763716E1,1.7144222E1,1.2773239E1,1.3952445E1,1.03714905E1,1.5879261E1,1.8682728E0,8.45281E0,0E0,2.2851048E0,1.2227526E1,1.1414381E1,1.572053E1,1.0378197E1,1.2163976E1,1.26193E1,1.2860933E1,9.991528E0,1.3004673E1,1.5512883E1,7.4361687E0,6.5514135E0,9.036657E0,7.7725735E0,1.28222885E1,9.543278E0,0E0,0E0,0E0,0E0,0E0,0E0,0E0,0E0,0E0,0E0,0E0,0E0,0E0,0E0,0E0,0E0,0E0,0E0,0E0,0E0,0E0,0E0,0E0,0E0,0E0,0E0,0E0,0E0,0E0,0E0,0E0,0E0,0E0,0E0,0E0,0E0,0E0,0E0,0E0,0E0,0E0,0E0,0E0,0E0,0E0,0E0,0E0,0E0,0E0,0E0,0E0,0E0,0E0,0E0,0E0,0E0,0E0,0E0],"parents":[2147483647,0,0,1,1,2,2,3,3,4,4,5,5,6,6,7,7,8,8,9,9,10,10,11,11,12,12,13,13,14,14,15,15,16,16,17,17,18,18,19,19,20,20,21,21,22,22,23,23,24,24,25,25,26,26,27,27,28,28,29,29,31,31,32,32,33,33,34,34,35,35,36,36,37,37,38,38,39,39,40,40,41,41,42,42,44,44,45,45,46,46,47,47,48,48,49,49,50,50,51,51,52,52,53,53,54,54,55,55,56,56,57,57,58,58,59,59,60,60],"right_children":[2,4,6,8,10,12,14,16,18,20,22,24,26,28,30,32,34,36,38,40,42,44,46,48,50,52,54,56,58,60,-1,62,64,66,68,70,72,74,76,78,80,82,84,-1,86,88,90,92,94,96,98,100,102,104,106,108,110,112,114,116,118,-1,-1,-1,-1,-1,-1,-1,-1,-1,-1,-1,-1,-1,-1,-1,-1,-1,-1,-1,-1,-1,-1,-1,-1,-1,-1,-1,-1,-1,-1,-1,-1,-1,-1,-1,-1,-1,-1,-1,-1,-1,-1,-1,-1,-1,-1,-1,-1,-1,-1,-1,-1,-1,-1,-1,-1,-1,-1],"split_conditions":[3.7156105E-1,1.2791159E0,1.1412646E0,-1.6490443E0,5.515194E-1,8.441812E-1,-1.8199486E-1,-8.182346E-1,-1.3608181E0,1.2238837E0,-3.8798875E-1,-7.313765E-1,-6.6768384E-1,-2.8724864E-1,1.6150565E0,-6.4715195E-1,9.154929E-1,-7.7174115E-1,-1.3153061E0,1.1362867E-1,-1.3441354E-1,-1.0315205E0,1.4720598E-1,-3.3155462E-1,-9.2634976E-1,3.4944624E-1,-5.67672E-2,-6.3709486E-1,-3.3803016E-1,1.0562803E0,-3.8214874E-1,-1.4389905E-1,7.170845E-1,1.03496656E-1,5.087811E-2,6.3558686E-1,3.3205006E-1,-8.739121E-1,1.8574538E0,-1.990233E0,7.8076935E-1,-8.095779E-1,4.1767976E-1,1.0678202E-1,7.958015E-1,8.820991E-1,8.9634687E-1,-6.31953E-1,1.1448414E0,-7.5221676E-1,-5.200273E-2,2.861244E-1,-9.8164475E-1,-1.1566077E0,-2.7619997E-1,1.9690746E-1,1.0844377E0,7.717696E-2,9.6948075E-1,-1.4367394E0,1.7866595E-2,3.6515403E-1,6.497865E-2,-5.0340694E-1,1.3248032E-1,4.3295923E-1,1.1105309E-1,-3.4426904E-1,2.1320318E-1,2.4112028E-1,-3.089448E-1,-8.0639005E-2,-3.6255398E-1,-1.3278778E-1,1.3769141E-1,-3.0764962E-2,-2.4608666E-1,-3.4288412E-1,3.1854126E-1,1.5052347E-1,-3.467577E-1,-4.7952503E-2,-4.999118E-1,3.5985795E-1,-3.296482E-1,-5.2144265E-1,-4.218444E-2,3.521877E-1,-3.162435E-1,-3.0211258E-1,3.7050492E-1,-2.575025E-1,1.1853689E-1,2.5228518E-1,-1.00287184E-1,-1.0492357E-1,2.0437877E-1,4.722547E-2,-7.537067E-2,1.2681627E-1,-3.175735E-1,-2.3632891E-1,4.0921575E-1,1.3925996E-1,-3.3029684E-1,1.8081787E-1,-1.6436419E-1,4.1676205E-1,-2.57289E-1,-4.2012608E-1,1.9409125E-1,-3.7214363E-1,2.0077212E-1,4.0331832E-1,-1.548349E-1,-1.8390232E-1,3.782598E-1,-3.0315834E-1,3.0193123E-1],"split_indices":[569,632,516,20,608,387,379,475,291,365,577,722,99,331,175,729,560,315,475,561,762,728,435,462,685,200,52,54,97,376,0,69,11,648,244,118,80,420,695,2,713,448,789,0,615,315,21,140,63,269,478,89,43,195,44,537,649,139,344,266,676,0,0,0,0,0,0,0,0,0,0,0,0,0,0,0,0,0,0,0,0,0,0,0,0,0,0,0,0,0,0,0,0,0,0,0,0,0,0,0,0,0,0,0,0,0,0,0,0,0,0,0,0,0,0,0,0,0,0],"split_type":[0,0,0,0,0,0,0,0,0,0,0,0,0,0,0,0,0,0,0,0,0,0,0,0,0,0,0,0,0,0,0,0,0,0,0,0,0,0,0,0,0,0,0,0,0,0,0,0,0,0,0,0,0,0,0,0,0,0,0,0,0,0,0,0,0,0,0,0,0,0,0,0,0,0,0,0,0,0,0,0,0,0,0,0,0,0,0,0,0,0,0,0,0,0,0,0,0,0,0,0,0,0,0,0,0,0,0,0,0,0,0,0,0,0,0,0,0,0,0],"sum_hessian":[1.9553434E3,1.2675396E3,6.8780383E2,1.139049E3,1.2849062E2,6.004707E2,8.733315E1,5.5503975E1,1.0835449E3,9.1003746E1,3.7486866E1,4.765007E2,1.2396997E2,3.6138515E1,5.119464E1,1.096028E1,4.4543694E1,9.92915E1,9.842535E2,7.973133E1,1.1272412E1,1.081927E1,2.6667593E1,1.1488188E2,3.616188E2,3.5915157E1,8.805482E1,1.4769372E1,2.1369143E1,4.9465538E1,1.7291026E0,2.9089172E0,8.051363E0,3.7200386E1,7.343311E0,1.7886492E1,8.1405E1,9.366485E1,8.905886E2,4.7185913E1,3.254542E1,5.9498568E0,5.3225555E0,1.9936795E0,8.825591E0,1.4389477E1,1.2278117E1,4.518325E1,6.969863E1,6.113998E1,3.0047885E2,2.3074781E1,1.2840375E1,4.1557793E1,4.6497025E1,4.13137E0,1.0638001E1,8.128205E0,1.3240937E1,4.166477E1,7.8007674E0,1.7370859E0,1.1718311E0,6.5904894E0,1.4608736E0,1.8328232E1,1.8872152E1,4.1616907E0,3.1816201E0,1.3708176E1,4.178316E0,4.9703693E1,3.1701307E1,1.8975906E1,7.468894E1,8.6359607E2,2.6992554E1,1.4456346E0,4.574028E1,2.6193085E1,6.352334E0,1.227589E0,4.7222676E0,3.8452268E0,1.4773287E0,7.6191006E0,1.2064905E0,1.2181899E1,2.2075775E0,1.0338606E1,1.9395108E0,1.3401235E1,3.1782019E1,6.1702896E1,7.9957347E0,1.4354376E1,4.6785606E1,1.468418E2,1.5363704E2,1.4701801E1,8.372979E0,1.9459051E0,1.089447E1,5.628006E0,3.5929787E1,1.8832865E1,2.766416E1,2.4323726E0,1.6989974E0,9.399634E0,1.2383676E0,4.45389E0,3.6743152E0,1.1043151E1,2.1977863E0,3.4363425E0,3.8228428E1,4.857626E0,2.9431417E0],"tree_param":{"num_deleted":"0","num_feature":"801","num_nodes":"119","size_leaf_vector":"1"}},{"base_weights":[-7.3819805E-4,1.1296E-2,-4.8820958E-1,-1.7050873E-1,4.2334504E-2,2.0474015E-1,-7.9826665E-1,1.651314E-1,-3.5030866E-1,4.0083066E-1,1.8631533E-2,6.051508E-1,-3.655665E-1,4.8513868E-1,-1.0891632E0,-1.1971625E-1,7.3731446E-1,-6.2992966E-1,-9.2140496E-2,8.1735545E-1,5.9127133E-2,-1.9750748E-2,2.4019717E-1,1.1836168E0,-4.7582057E-1,1.1253377E0,-3.2052395E-1,2.4918176E-1,-1.3454727E0,-5.050862E-1,5.061471E-1,1.1657999E0,-8.9143515E-2,9.164808E-1,-7.1339273E-1,8.431723E-1,-2.4391149E-1,1.000353E0,-5.214837E-1,-4.5105356E-1,5.624713E-1,-2.3866612E-1,2.6647797E-2,4.1182408E-1,-1.4570476E-1,-1.06569044E-1,4.656705E-1,2.8531003E-1,-3.4692174E-1,4.472913E-1,-3.3208374E-2,-2.8649107E-1,3.4389347E-1,-1.7072841E0,-2.1798131E-1,-2.2417614E-1,1.8848418E-1,3.3121473E-1,-1.0030361E-1,-1.9594705E-1,3.9162996E-1,2.3826346E-1,-3.000983E-1,-8.631597E-2,4.112187E-1,9.912263E-3,-2.6628253E-1,3.5708666E-1,-2.8853863E-1,-1.7486356E-3,-2.6879638E-1,-1.6543159E-1,3.525309E-1,2.62493E-1,-4.1483888E-1,1.4368618E-1,-2.5578985E-1,2.994539E-1,-9.621037E-2,1.3098212E-1,-1.0020731E-1,-5.3485293E-2,2.8184805E-2,2.3372496E-2,2.2139235E-1,2.3579093E-2,-2.8452784E-1,-1.2306675E-1,-5.315597E-1,-3.3049524E-1,3.1906357E-1],"categories":[],"categories_nodes":[],"categories_segments":[],"categories_sizes":[],"default_left":[0,0,0,0,0,0,0,0,0,0,0,0,0,0,0,0,0,0,0,0,0,0,0,0,0,0,0,0,0,0,0,0,0,0,0,0,0,0,0,0,0,0,0,0,0,0,0,0,0,0,0,0,0,0,0,0,0,0,0,0,0,0,0,0,0,0,0,0,0,0,0,0,0,0,0,0,0,0,0,0,0,0,0,0,0,0,0,0,0,0,0],"id":4,"left_children":[1,3,5,7,9,11,13,15,17,19,21,23,-1,25,27,29,31,33,35,37,39,41,43,45,47,49,-1,51,53,55,57,59,61,63,65,67,69,71,73,75,77,79,81,83,85,-1,-1,-1,-1,-1,-1,-1,-1,87,89,-1,-1,-1,-1,-1,-1,-1,-1,-1,-1,-1,-1,-1,-1,-1,-1,-1,-1,-1,-1,-1,-1,-1,-1,-1,-1,-1,-1,-1,-1,-1,-1,-1,-1,-1,-1],"loss_changes":[1.1373111E1,1.0684028E1,1.0198795E1,1.6720833E1,1.3732424E1,9.419616E0,1.2651907E1,1.5897186E1,1.2944571E1,1.4217215E1,1.2911714E1,8.415672E0,0E0,7.858259E0,9.52199E0,1.6082047E1,1.1569746E1,1.1791798E1,1.3666118E1,1.1569334E1,1.4669825E1,1.3155518E1,1.4907224E1,5.35429E0,6.0434566E0,2.5269613E0,0E0,6.656271E0,8.860653E0,1.1753383E1,1.3186655E1,6.286417E0,1.0440387E1,3.0510507E0,1.074968E1,9.5797825E0,1.2781046E1,1.1498333E1,8.522287E0,1.1027958E1,1.13653965E1,1.4730345E1,1.476139E1,1.6869432E1,1.2632593E1,0E0,0E0,0E0,0E0,0E0,0E0,0E0,0E0,6.961632E-1,8.696511E0,0E0,0E0,0E0,0E0,0E0,0E0,0E0,0E0,0E0,0E0,0E0,0E0,0E0,0E0,0E0,0E0,0E0,0E0,0E0,0E0,0E0,0E0,0E0,0E0,0E0,0E0,0E0,0E0,0E0,0E0,0E0,0E0,0E0,0E0,0E0,0E0],"parents":[2147483647,0,0,1,1,2,2,3,3,4,4,5,5,6,6,7,7,8,8,9,9,10,10,11,11,13,13,14,14,15,15,16,16,17,17,18,18,19,19,20,20,21,21,22,22,23,23,24,24,25,25,27,27,28,28,29,29,30,30,31,31,32,32,33,33,34,34,35,35,36,36,37,37,38,38,39,39,40,40,41,41,42,42,43,43,44,44,53,53,54,54],"right_children":[2,4,6,8,10,12,14,16,18,20,22,24,-1,26,28,30,32,34,36,38,40,42,44,46,48,50,-1,52,54,56,58,60,62,64,66,68,70,72,74,76,78,80,82,84,86,-1,-1,-1,-1,-1,-1,-1,-1,88,90,-1,-1,-1,-1,-1,-1,-1,-1,-1,-1,-1,-1,-1,-1,-1,-1,-1,-1,-1,-1,-1,-1,-1,-1,-1,-1,-1,-1,-1,-1,-1,-1,-1,-1,-1,-1],"split_conditions":[1.9811239E0,-1.0521507E0,-4.233628E-1,-3.8041478E-1,-1.5309325E0,9.7078973E-1,-8.3671826E-1,5.3400266E-1,-4.10617E-2,-3.3339143E-2,1.0639812E0,5.894237E-1,-3.655665E-1,1.1266379E0,-7.906694E-1,2.2593188E-1,3.532522E-1,-1.7716492E0,-1.1589824E0,1.3270192E0,-5.8974348E-2,-9.605876E-1,4.387194E-1,-5.979748E-1,-1.0342515E0,1.0639862E0,-3.2052395E-1,-1.9855373E-1,6.739983E-1,9.6300733E-1,3.4287342E-1,-1.3168923E0,4.1149687E-2,-4.0739745E-1,-8.591125E-1,1.1392496E0,7.095323E-1,-1.3852813E0,-6.2539077E-1,-7.368882E-1,4.0001038E-1,-1.1587412E0,-7.017163E-1,-2.7636375E-2,8.8475806E-1,-1.06569044E-1,4.656705E-1,2.8531003E-1,-3.4692174E-1,4.472913E-1,-3.3208374E-2,-2.8649107E-1,3.4389347E-1,-1.2605346E0,7.490383E-1,-2.2417614E-1,1.8848418E-1,3.3121473E-1,-1.0030361E-1,-1.9594705E-1,3.9162996E-1,2.3826346E-1,-3.000983E-1,-8.631597E-2,4.112187E-1,9.912263E-3,-2.6628253E-1,3.5708666E-1,-2.8853863E-1,-1.7486356E-3,-2.6879638E-1,-1.6543159E-1,3.525309E-1,2.62493E-1,-4.1483888E-1,1.4368618E-1,-2.5578985E-1,2.994539E-1,-9.621037E-2,1.3098212E-1,-1.0020731E-1,-5.3485293E-2,2.8184805E-2,2.3372496E-2,2.2139235E-1,2.3579093E-2,-2.8452784E-1,-1.2306675E-1,-5.315597E-1,-3.3049524E-1,3.1906357E-1],"split_indices":[53,743,362,290,509,726,503,506,505,173,257,348,0,465,420,661,325,499,196,789,154,695,725,461,482,336,0,119,701,201,184,723,457,658,190,226,106,12,588,308,13,324,40,132,535,0,0,0,0,0,0,0,0,497,427,0,0,0,0,0,0,0,0,0,0,0,0,0,0,0,0,0,0,0,0,0,0,0,0,0,0,0,0,0,0,0,0,0,0,0,0],"split_type":[0,0,0,0,0,0,0,0,0,0,0,0,0,0,0,0,0,0,0,0,0,0,0,0,0,0,0,0,0,0,0,0,0,0,0,0,0,0,0,0,0,0,0,0,0,0,0,0,0,0,0,0,0,0,0,0,0,0,0,0,0,0,0,0,0,0,0,0,0,0,0,0,0,0,0,0,0,0,0,0,0,0,0,0,0,0,0,0,0,0,0],"sum_hessian":[1.9367705E3,1.8910627E3,4.570781E1,2.7511462E2,1.6159481E3,1.4234547E1,3.1473263E1,9.599615E1,1.7911847E2,9.923006E1,1.516718E3,1.1557843E1,2.6767037E0,5.6921883E0,2.5781075E1,6.461826E1,3.1377884E1,8.529537E1,9.3823105E1,4.4091743E1,5.5138313E1,1.2935453E3,2.2317273E2,7.46702E0,4.0908227E0,4.2262425E0,1.4659456E0,4.1482716E0,2.1632803E1,4.0112385E1,2.4505877E1,2.0393877E1,1.0984007E1,3.8567379E0,8.143863E1,1.2462908E1,8.13602E1,3.901223E1,5.079515E0,2.7434786E1,2.7703527E1,2.254927E2,1.0680526E3,1.5442584E2,6.874688E1,1.4500222E0,6.016998E0,1.1927772E0,2.8980455E0,3.102292E0,1.1239506E0,1.7435536E0,2.404718E0,1.5988022E1,5.644782E0,3.333116E1,6.7812257E0,1.4136211E1,1.0369665E1,1.1917452E0,1.9202131E1,5.642354E0,5.341653E0,1.1567703E0,2.6999674E0,1.5564083E1,6.587455E1,1.0738346E1,1.7245615E0,6.033862E1,2.1021578E1,3.7304044E0,3.5281826E1,1.9317203E0,3.1477947E0,8.215661E0,1.9219126E1,1.8464128E1,9.239399E0,2.7459734E1,1.9803297E2,2.6363608E2,8.044165E2,7.6916695E1,7.750915E1,5.4437637E1,1.4309241E1,1.1069963E0,1.4881025E1,3.4240844E0,2.2206976E0],"tree_param":{"num_deleted":"0","num_feature":"801","num_nodes":"91","size_leaf_vector":"1"}},{"base_weights":[-5.6341663E-4,1.9172054E-2,-2.7545112E-1,8.031664E-2,-7.315556E-2,2.824338E-1,-4.4937092E-1,3.058855E-2,3.260773E-1,-1.0977565E-1,6.259164E-1,-6.2393224E-1,7.43215E-1,1.92619E-2,-7.302277E-1,3.2951397E-1,-3.152475E-2,-1.6910034E-1,4.6375117E-1,-1.3067056E-1,9.0131253E-1,-6.066862E-2,1.1604617E0,8.124843E-1,-1.1616758E0,1.0606734E0,-3.9261216E-1,-7.409313E-1,4.555456E-1,-2.349983E-1,-1.1221889E0,6.24076E-1,8.58522E-2,1.01740874E-1,-2.0740901E-1,2.5267836E-1,-9.256818E-1,6.8960893E-1,7.957885E-2,-6.1420664E-2,-4.2496002E-1,-2.0980564E-1,1.2348373E0,1.1690142E0,-5.168613E-1,-2.4483617E-1,1.4345434E0,3.4704E-1,9.442117E-3,-1.5067636E0,1.525946E-1,4.5737218E-2,1.4882594E0,1.9027756E-1,-3.8851357E-1,3.2824534E-1,-1.3265766E0,-5.506987E-1,9.3915737E-1,-7.119521E-1,5.8719784E-1,3.6820117E-1,-1.2799112E0,-1.4614885E-1,2.4503367E-1,-7.417892E-2,1.6322461E-1,4.1885465E-2,-2.1855234E-1,-1.1408309E-1,4.432892E-3,2.7408248E-1,-1.2598388E-1,2.5095978E-1,-3.7810764E-1,6.952572E-2,3.1043446E-1,-4.3656923E-2,2.762508E-1,-4.088764E-2,8.957486E-2,-1.5952781E-1,1.2600471E-1,-1.2518941E-1,4.5137957E-1,4.4884533E-2,4.2979267E-1,1.2874354E-1,-3.9227405E-1,-3.41678E-1,2.47072E-1,-5.869611E-2,4.7170568E-1,-1.4322858E-1,-4.852564E-1,3.43997E-1,-3.1039533E-1,3.5909638E-2,4.8869488E-1,-3.1965E-1,3.1334364E-1,-4.708468E-1,6.0696952E-2,1.5323411E-1,-3.9297235E-1,-3.340363E-1,3.5079217E-1,-3.1543842E-1,2.8318173E-1,3.861096E-1,-2.0177765E-1,3.425368E-1,-2.6240167E-1,1.6584192E-1,-4.2032537E-1],"categories":[],"categories_nodes":[],"categories_segments":[],"categories_sizes":[],"default_left":[0,0,0,0,0,0,0,0,0,0,0,0,0,0,0,0,0,0,0,0,0,0,0,0,0,0,0,0,0,0,0,0,0,0,0,0,0,0,0,0,0,0,0,0,0,0,0,0,0,0,0,0,0,0,0,0,0,0,0,0,0,0,0,0,0,0,0,0,0,0,0,0,0,0,0,0,0,0,0,0,0,0,0,0,0,0,0,0,0,0,0,0,0,0,0,0,0,0,0,0,0,0,0,0,0,0,0,0,0,0,0,0,0,0,0],"id":5,"left_children":[1,3,5,7,9,11,13,15,17,19,21,23,25,27,29,31,33,35,37,39,41,43,45,47,49,51,53,55,57,59,61,63,65,67,69,71,73,75,77,79,81,-1,83,85,87,89,91,-1,-1,93,-1,95,97,-1,-1,99,101,103,105,107,109,111,113,-1,-1,-1,-1,-1,-1,-1,-1,-1,-1,-1,-1,-1,-1,-1,-1,-1,-1,-1,-1,-1,-1,-1,-1,-1,-1,-1,-1,-1,-1,-1,-1,-1,-1,-1,-1,-1,-1,-1,-1,-1,-1,-1,-1,-1,-1,-1,-1,-1,-1,-1,-1],"loss_changes":[1.043836E1,1.0140649E1,1.263248E1,1.3194833E1,1.8392344E1,1.3512855E1,1.299719E1,1.6716282E1,1.2467638E1,1.4504721E1,1.3201093E1,9.498022E0,8.050138E0,1.2920196E1,1.1713593E1,1.1062771E1,1.7503788E1,1.3083735E1,1.2306505E1,1.3588892E1,8.292159E0,9.922942E0,8.118353E0,9.330332E-1,5.6482697E0,7.2297516E0,5.7832403E0,9.336054E0,1.254859E1,1.1604318E1,8.505405E0,1.5378489E1,1.3250196E1,1.3467503E1,1.2367547E1,1.2226681E1,9.681371E0,1.3918594E1,1.0336514E1,1.4649261E1,1.169239E1,0E0,5.921213E0,1.076066E0,1.0143394E1,4.897833E0,4.1313477E0,0E0,0E0,5.6764603E-2,0E0,8.342331E0,2.0775566E0,0E0,0E0,6.934903E0,3.802065E0,7.6446476E0,9.36505E0,1.1395838E1,1.0581813E1,4.8901362E0,7.6878967E0,0E0,0E0,0E0,0E0,0E0,0E0,0E0,0E0,0E0,0E0,0E0,0E0,0E0,0E0,0E0,0E0,0E0,0E0,0E0,0E0,0E0,0E0,0E0,0E0,0E0,0E0,0E0,0E0,0E0,0E0,0E0,0E0,0E0,0E0,0E0,0E0,0E0,0E0,0E0,0E0,0E0,0E0,0E0,0E0,0E0,0E0,0E0,0E0,0E0,0E0,0E0,0E0],"parents":[2147483647,0,0,1,1,2,2,3,3,4,4,5,5,6,6,7,7,8,8,9,9,10,10,11,11,12,12,13,13,14,14,15,15,16,16,17,17,18,18,19,19,20,20,21,21,22,22,23,23,24,24,25,25,26,26,27,27,28,28,29,29,30,30,31,31,32,32,33,33,34,34,35,35,36,36,37,37,38,38,39,39,40,40,42,42,43,43,44,44,45,45,46,46,49,49,51,51,52,52,55,55,56,56,57,57,58,58,59,59,60,60,61,61,62,62],"right_children":[2,4,6,8,10,12,14,16,18,20,22,24,26,28,30,32,34,36,38,40,42,44,46,48,50,52,54,56,58,60,62,64,66,68,70,72,74,76,78,80,82,-1,84,86,88,90,92,-1,-1,94,-1,96,98,-1,-1,100,102,104,106,108,110,112,114,-1,-1,-1,-1,-1,-1,-1,-1,-1,-1,-1,-1,-1,-1,-1,-1,-1,-1,-1,-1,-1,-1,-1,-1,-1,-1,-1,-1,-1,-1,-1,-1,-1,-1,-1,-1,-1,-1,-1,-1,-1,-1,-1,-1,-1,-1,-1,-1,-1,-1,-1,-1],"split_conditions":[1.5104611E0,2.4167976E-1,-6.4549375E-1,9.512539E-1,1.6255991E0,-4.1212305E-1,-3.3479363E-1,-9.4626546E-1,-7.770544E-1,2.102483E0,-7.503775E-2,-5.326603E-1,9.207097E-1,-3.4823152E-1,-1.2053283E-1,-1.8772548E-1,1.9243112E-1,4.7203612E-1,2.773164E-1,9.1290325E-1,-1.2676989E0,-6.801459E-1,-9.995811E-1,6.179773E-2,7.867615E-1,-2.9116705E-1,-2.9956552E-1,-3.2348764E-1,-4.2037112E-1,2.8927097E-1,-1.5485226E0,-1.1651332E0,2.3091029E-1,1.7128758E0,1.2791431E-1,-5.4140154E-2,-9.614409E-1,-1.5433595E-1,7.354248E-1,9.785781E-1,1.202149E0,-2.0980564E-1,-1.0196028E0,-4.0707445E-1,-2.8087161E-2,-4.130925E-1,-1.6302928E0,3.4704E-1,9.442117E-3,-5.4027146E-1,1.525946E-1,-9.541919E-2,-1.1675569E0,1.9027756E-1,-3.8851357E-1,-3.3861402E-1,1.0329295E0,-2.900571E-1,-1.7445039E0,1.2007705E0,3.173159E-1,7.361464E-1,-1.4721111E0,-1.4614885E-1,2.4503367E-1,-7.417892E-2,1.6322461E-1,4.1885465E-2,-2.1855234E-1,-1.1408309E-1,4.432892E-3,2.7408248E-1,-1.2598388E-1,2.5095978E-1,-3.7810764E-1,6.952572E-2,3.1043446E-1,-4.3656923E-2,2.762508E-1,-4.088764E-2,8.957486E-2,-1.5952781E-1,1.2600471E-1,-1.2518941E-1,4.5137957E-1,4.4884533E-2,4.2979267E-1,1.2874354E-1,-3.9227405E-1,-3.41678E-1,2.47072E-1,-5.869611E-2,4.7170568E-1,-1.4322858E-1,-4.852564E-1,3.43997E-1,-3.1039533E-1,3.5909638E-2,4.8869488E-1,-3.1965E-1,3.1334364E-1,-4.708468E-1,6.0696952E-2,1.5323411E-1,-3.9297235E-1,-3.340363E-1,3.5079217E-1,-3.1543842E-1,2.8318173E-1,3.861096E-1,-2.0177765E-1,3.425368E-1,-2.6240167E-1,1.6584192E-1,-4.2032537E-1],"split_indices":[735,122,445,597,142,101,494,25,523,736,40,707,220,741,487,199,590,10,323,64,142,340,277,380,730,635,310,369,131,117,443,726,195,450,188,186,331,405,233,25,513,0,755,431,691,487,646,0,0,218,0,480,439,0,0,708,657,223,725,484,254,87,402,0,0,0,0,0,0,0,0,0,0,0,0,0,0,0,0,0,0,0,0,0,0,0,0,0,0,0,0,0,0,0,0,0,0,0,0,0,0,0,0,0,0,0,0,0,0,0,0,0,0,0,0],"split_type":[0,0,0,0,0,0,0,0,0,0,0,0,0,0,0,0,0,0,0,0,0,0,0,0,0,0,0,0,0,0,0,0,0,0,0,0,0,0,0,0,0,0,0,0,0,0,0,0,0,0,0,0,0,0,0,0,0,0,0,0,0,0,0,0,0,0,0,0,0,0,0,0,0,0,0,0,0,0,0,0,0,0,0,0,0,0,0,0,0,0,0,0,0,0,0,0,0,0,0,0,0,0,0,0,0,0,0,0,0,0,0,0,0,0,0],"sum_hessian":[1.9221346E3,1.7942476E3,1.2788714E2,1.0794828E3,7.147647E2,3.0245213E1,9.764193E1,8.9875085E2,1.80732E2,6.799873E2,3.477739E1,1.0074463E1,2.017075E1,3.6938465E1,6.0703465E1,1.5388095E2,7.448699E2,3.926774E1,1.4146426E2,6.670725E2,1.2914803E1,1.5611737E1,1.9165651E1,2.605025E0,7.469438E0,1.5816326E1,4.3544226E0,1.3214633E1,2.3723833E1,2.7525494E1,3.317797E1,6.895735E1,8.49236E1,4.240177E2,3.2085217E2,2.5639992E1,1.3627746E1,8.858779E1,5.287647E1,5.409816E2,1.2609087E2,2.0378451E0,1.0876957E1,3.801668E0,1.1810069E1,3.1453276E0,1.6020325E1,1.4740286E0,1.1309966E0,6.2716427E0,1.1977953E0,5.016327E0,1.0799999E1,2.1757846E0,2.1786382E0,4.832235E0,8.382398E0,7.655798E0,1.6068035E1,1.7504984E1,1.0020509E1,3.047382E0,3.0130589E1,9.965028E0,5.899232E1,4.944176E1,3.5481842E1,4.0631287E2,1.770484E1,1.8005305E2,1.407991E2,1.2751715E1,1.2888278E1,1.9357394E0,1.1692006E1,3.8796844E1,4.9790947E1,4.236701E1,1.0509462E1,4.4835645E2,9.262519E1,1.1227122E2,1.3819658E1,1.4499453E0,9.427012E0,1.1032262E0,2.6984417E0,5.585234E0,6.224835E0,1.6764233E0,1.4689043E0,1.2160014E0,1.4804323E1,1.1251884E0,5.1464543E0,2.4541757E0,2.5621514E0,1.1795232E0,9.620477E0,1.4747741E0,3.3574607E0,7.2102766E0,1.1721214E0,3.3288405E0,4.3269577E0,1.2330467E0,1.4834988E1,1.4829494E1,2.67549E0,6.428016E0,3.5924928E0,1.9284247E0,1.1189574E0,1.6476817E0,2.8482906E1],"tree_param":{"num_deleted":"0","num_feature":"801","num_nodes":"115","size_leaf_vector":"1"}},{"base_weights":[1.8842352E-4,-1.9082064E-2,2.5242284E-1,-6.172993E-1,-9.40886E-3,-7.4417666E-2,5.457919E-1,8.95004E-1,-8.597317E-1,-2.6245164E-2,3.51154E-1,-3.5791922E-1,5.7233334E-1,-1.0030297E-2,8.350461E-1,-5.448508E-2,4.0221897E-1,-1.1958977E0,1.7211604E-1,-3.2402685E-1,-6.0984883E-3,1.1914878E0,1.3709685E-1,1.9304143E-1,-8.1219137E-1,1.0067993E0,-6.627127E-1,-6.9778883E-1,5.944278E-1,-2.3308828E-1,9.973239E-1,1.8723096E-1,-1.38234E0,-6.798513E-1,3.8552168E-1,-8.229568E-1,-5.5807702E-2,3.3669557E-2,-1.8995687E-1,1.3788911E0,-1.8991491E-1,-2.8174874E-1,5.842587E-1,7.3866606E-1,-6.7183596E-1,5.486357E-1,-1.1015861E0,-1.8117827E-1,1.5255482E0,1.8613824E-1,-4.2929888E-1,-1.3231727E0,5.3618115E-1,-4.3238592E-1,1.0598524E0,3.07544E-1,-1.1015755E0,-3.1390926E-1,1.1603335E0,-4.638515E-1,3.2007128E-2,-3.80645E-1,1.6722772E-1,5.1719327E-2,-3.297777E-1,1.0769021E-1,-1.717262E-1,1.7073783E-1,4.464572E-3,-7.809562E-2,1.3370824E-1,4.8858267E-1,2.1867413E-2,-2.0978874E-1,1.7373925E-1,3.462295E-1,-8.0604896E-2,-1.8602452E-1,3.3404765E-1,-3.5253078E-1,1.9613722E-1,-2.170225E-1,3.6690164E-1,-3.774287E-1,2.571544E-1,-3.539401E-1,2.332278E-1,5.0084597E-1,5.0815832E-2,-4.9927098E-1,6.416516E-2,3.770364E-1,-2.0983903E-1,-3.7614086E-1,2.3671775E-1,-1.7247532E-1,4.0455154E-1,-4.1654342E-1,-3.8020063E-2,2.2229743E-1,-3.7802264E-1,3.978219E-1,-1.5149021E-1],"categories":[],"categories_nodes":[],"categories_segments":[],"categories_sizes":[],"default_left":[0,0,0,0,0,0,0,0,0,0,0,0,0,0,0,0,0,0,0,0,0,0,0,0,0,0,0,0,0,0,0,0,0,0,0,0,0,0,0,0,0,0,0,0,0,0,0,0,0,0,0,0,0,0,0,0,0,0,0,0,0,0,0,0,0,0,0,0,0,0,0,0,0,0,0,0,0,0,0,0,0,0,0,0,0,0,0,0,0,0,0,0,0,0,0,0,0,0,0,0,0,0,0],"id":6,"left_children":[1,3,5,7,9,11,13,15,17,19,21,23,25,27,29,-1,-1,31,33,35,37,39,41,43,45,47,49,51,53,55,57,-1,59,61,-1,63,65,67,69,71,-1,73,75,77,79,81,83,85,87,-1,-1,89,91,93,95,-1,97,99,101,-1,-1,-1,-1,-1,-1,-1,-1,-1,-1,-1,-1,-1,-1,-1,-1,-1,-1,-1,-1,-1,-1,-1,-1,-1,-1,-1,-1,-1,-1,-1,-1,-1,-1,-1,-1,-1,-1,-1,-1,-1,-1,-1,-1],"loss_changes":[9.261949E0,1.0238049E1,1.3008537E1,1.1091608E1,1.0590752E1,1.2095948E1,1.1486309E1,2.3452103E0,8.799368E0,9.994453E0,1.3836923E1,1.1595795E1,1.1478975E1,1.0984177E1,8.373558E0,0E0,0E0,7.2462006E0,7.4750996E0,1.4081663E1,1.1425014E1,6.2311783E0,1.1994057E1,1.0624062E1,1.0545042E1,9.706805E0,6.6516733E0,1.0242066E1,7.18313E0,8.784133E0,9.119709E0,0E0,4.4036636E0,4.057458E0,0E0,1.0320547E1,1.5147506E1,1.2916814E1,1.2543938E1,4.618635E0,0E0,1.2370434E1,1.5315598E1,7.635216E0,6.6563272E0,5.2546277E0,7.5615997E0,6.225317E0,1.8171387E0,0E0,0E0,4.8047495E0,5.2121696E0,6.1053543E0,5.481085E0,0E0,1.1179781E0,6.24003E0,1.0784164E1,0E0,0E0,0E0,0E0,0E0,0E0,0E0,0E0,0E0,0E0,0E0,0E0,0E0,0E0,0E0,0E0,0E0,0E0,0E0,0E0,0E0,0E0,0E0,0E0,0E0,0E0,0E0,0E0,0E0,0E0,0E0,0E0,0E0,0E0,0E0,0E0,0E0,0E0,0E0,0E0,0E0,0E0,0E0,0E0],"parents":[2147483647,0,0,1,1,2,2,3,3,4,4,5,5,6,6,7,7,8,8,9,9,10,10,11,11,12,12,13,13,14,14,17,17,18,18,19,19,20,20,21,21,22,22,23,23,24,24,25,25,26,26,27,27,28,28,29,29,30,30,32,32,33,33,35,35,36,36,37,37,38,38,39,39,41,41,42,42,43,43,44,44,45,45,46,46,47,47,48,48,51,51,52,52,53,53,54,54,56,56,57,57,58,58],"right_children":[2,4,6,8,10,12,14,16,18,20,22,24,26,28,30,-1,-1,32,34,36,38,40,42,44,46,48,50,52,54,56,58,-1,60,62,-1,64,66,68,70,72,-1,74,76,78,80,82,84,86,88,-1,-1,90,92,94,96,-1,98,100,102,-1,-1,-1,-1,-1,-1,-1,-1,-1,-1,-1,-1,-1,-1,-1,-1,-1,-1,-1,-1,-1,-1,-1,-1,-1,-1,-1,-1,-1,-1,-1,-1,-1,-1,-1,-1,-1,-1,-1,-1,-1,-1,-1,-1],"split_conditions":[1.4862471E0,-2.156262E0,-4.0064E-2,-1.3111153E0,1.6989896E0,6.7436534E-1,-2.8798163E-1,-5.957805E-1,7.872325E-1,-1.5402313E0,-7.8099495E-1,-2.5503242E-1,1.140956E0,-1.1740934E-2,-1.1341082E0,-5.448508E-2,4.0221897E-1,-1.547803E0,1.5816261E-1,-3.43489E-1,9.269757E-1,1.2955871E0,3.7646372E-2,6.2271667E-1,-8.7646896E-1,-6.936285E-1,-1.756263E-1,2.9731524E-1,-3.5678124E-1,-3.230165E-1,-1.2196676E0,1.8723096E-1,1.072268E0,3.0295965E-1,3.8552168E-1,-7.029181E-1,1.6022982E-1,-1.7978647E0,1.2115333E0,7.760271E-1,-1.8991491E-1,4.6277934E-1,3.963681E-1,-2.4108395E-1,8.043586E-1,-2.709838E-1,1.5410312E0,-1.6812225E-1,1.0253849E0,1.8613824E-1,-4.2929888E-1,8.182558E-1,-1.7152254E-1,1.7970733E-1,-1.2443787E0,3.07544E-1,3.3036935E-1,-3.5358516E-3,1.3571521E0,-4.638515E-1,3.2007128E-2,-3.80645E-1,1.6722772E-1,5.1719327E-2,-3.297777E-1,1.0769021E-1,-1.717262E-1,1.7073783E-1,4.464572E-3,-7.809562E-2,1.3370824E-1,4.8858267E-1,2.1867413E-2,-2.0978874E-1,1.7373925E-1,3.462295E-1,-8.0604896E-2,-1.8602452E-1,3.3404765E-1,-3.5253078E-1,1.9613722E-1,-2.170225E-1,3.6690164E-1,-3.774287E-1,2.571544E-1,-3.539401E-1,2.332278E-1,5.0084597E-1,5.0815832E-2,-4.9927098E-1,6.416516E-2,3.770364E-1,-2.0983903E-1,-3.7614086E-1,2.3671775E-1,-1.7247532E-1,4.0455154E-1,-4.1654342E-1,-3.8020063E-2,2.2229743E-1,-3.7802264E-1,3.978219E-1,-1.5149021E-1],"split_indices":[319,316,357,49,81,788,732,255,546,568,589,646,727,248,313,0,0,472,533,132,13,630,52,797,579,670,74,766,420,110,413,0,569,81,0,179,408,575,55,409,0,578,76,734,640,253,370,536,268,0,0,505,391,593,668,0,502,159,195,0,0,0,0,0,0,0,0,0,0,0,0,0,0,0,0,0,0,0,0,0,0,0,0,0,0,0,0,0,0,0,0,0,0,0,0,0,0,0,0,0,0,0,0],"split_type":[0,0,0,0,0,0,0,0,0,0,0,0,0,0,0,0,0,0,0,0,0,0,0,0,0,0,0,0,0,0,0,0,0,0,0,0,0,0,0,0,0,0,0,0,0,0,0,0,0,0,0,0,0,0,0,0,0,0,0,0,0,0,0,0,0,0,0,0,0,0,0,0,0,0,0,0,0,0,0,0,0,0,0,0,0,0,0,0,0,0,0,0,0,0,0,0,0,0,0,0,0,0,0],"sum_hessian":[1.9034932E3,1.7692484E3,1.3424467E2,2.715403E1,1.7420944E3,6.385291E1,7.039176E1,3.379679E0,2.3774351E1,1.665263E3,7.683141E1,4.4703735E1,1.9149174E1,2.4424227E1,4.5967537E1,1.1630197E0,2.216659E0,1.781229E1,5.96206E0,1.04569565E2,1.5606935E3,1.4670919E1,6.2160496E1,2.0461819E1,2.4241915E1,1.4302596E1,4.846577E0,1.1352656E1,1.307157E1,6.0050597E0,3.996248E1,1.4370216E0,1.6375269E1,3.5974004E0,2.3646598E0,3.5837654E1,6.873191E1,1.283823E3,2.768704E2,1.3525888E1,1.1450306E0,3.22875E1,2.9872995E1,1.2636052E1,7.8257675E0,4.0941405E0,2.0147774E1,4.544973E0,9.757623E0,1.887131E0,2.9594462E0,7.486275E0,3.8663814E0,4.0991225E0,8.972447E0,2.3786173E0,3.6264427E0,4.316366E0,3.564611E1,1.4717581E1,1.6576881E0,2.419964E0,1.1774362E0,7.868416E0,2.7969236E1,3.8292786E1,3.0439125E1,4.2525814E1,1.2412972E3,2.4980887E2,2.7061523E1,1.1147396E1,2.3784924E0,2.186847E1,1.0419031E1,1.7696863E1,1.2176132E1,2.5906403E0,1.0045412E1,5.7546115E0,2.071156E0,1.3932935E0,2.7008471E0,1.8988281E1,1.1594921E0,2.1130078E0,2.431965E0,8.612487E0,1.1451362E0,6.0590625E0,1.4272128E0,2.4313493E0,1.4350322E0,2.435062E0,1.6640607E0,1.1976855E0,7.774762E0,2.4740129E0,1.1524296E0,2.1434438E0,2.1729224E0,3.2604816E1,3.0412955E0],"tree_param":{"num_deleted":"0","num_feature":"801","num_nodes":"103","size_leaf_vector":"1"}},{"base_weights":[6.496568E-4,2.0683955E-1,-2.1778187E-2,-3.9724678E-1,3.0737308E-1,-4.867417E-2,1.886316E-1,8.9606345E-1,-6.5361315E-1,5.886164E-1,4.31674E-2,-9.9441424E-2,8.435294E-2,2.70398E-1,-7.1199894E-1,-6.2392693E-2,3.816936E-1,-9.881179E-1,3.2842413E-1,7.442101E-1,-3.53585E-1,-3.7827882E-1,3.4219754E-1,-3.7687097E-2,-3.025274E-1,1.6819043E-1,-2.3966452E-1,1.9345798E-1,1.1326282E0,-1.317066E0,4.2252162E-1,2.992153E-1,-1.1925708E0,-3.1173167E-1,9.878325E-1,1.9795534E-1,9.8993886E-1,7.511094E-1,-1.0899686E0,-6.7715937E-1,6.001607E-1,-3.042076E-1,6.7853516E-1,-5.565786E-2,8.884966E-1,9.606566E-2,-4.2784068E-1,2.15739E-1,-5.324004E-1,4.7459424E-1,-4.779274E-1,5.47689E-1,1.00836605E-2,-1.76229E-1,1.4461576E0,7.4962504E-2,-1.5431408E0,3.742952E-1,-2.6524344E-1,1.0411054E-1,-4.361189E-1,-5.3510647E-2,4.1098246E-1,-1.7636529E-1,2.4646088E-1,-2.0783585E-1,3.264783E-1,3.883664E-1,-1.8072781E-1,-4.4141963E-1,1.560703E-1,-3.855515E-1,-4.9730554E-2,-1.3148339E-1,4.300242E-1,-2.4702051E-1,1.7665993E-1,3.9037117E-1,2.778426E-2,-3.2361485E-2,6.1258003E-2,4.096112E-1,-5.2547164E-2,1.713926E-1,-1.0490391E-1,-1.5270388E-1,1.4718153E-1,1.4544018E-1,1.7286215E-2,-2.3821801E-1,3.3880457E-1,-1.583957E-1,2.5578427E-1,-2.785077E-1,-2.975692E-2,1.9562757E-1,-3.5350126E-1,-4.4390917E-2,2.1102187E-1,5.043196E-1,-7.5856015E-2,-1.310414E-1,-4.9071473E-1],"categories":[],"categories_nodes":[],"categories_segments":[],"categories_sizes":[],"default_left":[0,0,0,0,0,0,0,0,0,0,0,0,0,0,0,0,0,0,0,0,0,0,0,0,0,0,0,0,0,0,0,0,0,0,0,0,0,0,0,0,0,0,0,0,0,0,0,0,0,0,0,0,0,0,0,0,0,0,0,0,0,0,0,0,0,0,0,0,0,0,0,0,0,0,0,0,0,0,0,0,0,0,0,0,0,0,0,0,0,0,0,0,0,0,0,0,0,0,0,0,0,0,0],"id":7,"left_children":[1,3,5,7,9,11,13,15,17,19,21,23,25,27,29,-1,-1,31,33,35,37,39,41,43,45,47,49,51,53,55,57,-1,59,-1,61,63,65,67,69,71,73,75,77,79,81,83,85,87,89,91,93,95,97,-1,99,-1,101,-1,-1,-1,-1,-1,-1,-1,-1,-1,-1,-1,-1,-1,-1,-1,-1,-1,-1,-1,-1,-1,-1,-1,-1,-1,-1,-1,-1,-1,-1,-1,-1,-1,-1,-1,-1,-1,-1,-1,-1,-1,-1,-1,-1,-1,-1],"loss_changes":[8.737166E0,1.1378584E1,9.652651E0,9.498556E0,1.1824069E1,1.02175455E1,1.443028E1,2.2870944E0,7.884104E0,1.1575514E1,1.0627839E1,1.3716476E1,1.139791E1,1.1587552E1,1.1791906E1,0E0,0E0,8.25898E0,6.9758873E0,8.737057E0,1.0266976E1,1.0656263E1,1.0914768E1,1.4039083E1,1.2782705E1,1.1199254E1,1.492296E1,1.0686251E1,8.601299E0,4.252964E0,8.057262E0,0E0,7.036192E0,0E0,2.456339E0,1.1213928E1,8.306938E0,4.6325045E0,5.2963257E0,8.281117E0,8.183419E0,8.621213E0,1.1812678E1,1.1221605E1,8.383708E0,1.3298147E1,1.4732258E1,1.3258748E1,1.0217482E1,8.826984E0,1.1039789E1,1.0882179E1,1.2100379E1,0E0,5.392723E0,0E0,2.7692986E-1,0E0,0E0,0E0,0E0,0E0,0E0,0E0,0E0,0E0,0E0,0E0,0E0,0E0,0E0,0E0,0E0,0E0,0E0,0E0,0E0,0E0,0E0,0E0,0E0,0E0,0E0,0E0,0E0,0E0,0E0,0E0,0E0,0E0,0E0,0E0,0E0,0E0,0E0,0E0,0E0,0E0,0E0,0E0,0E0,0E0,0E0],"parents":[2147483647,0,0,1,1,2,2,3,3,4,4,5,5,6,6,7,7,8,8,9,9,10,10,11,11,12,12,13,13,14,14,17,17,18,18,19,19,20,20,21,21,22,22,23,23,24,24,25,25,26,26,27,27,28,28,29,29,30,30,32,32,34,34,35,35,36,36,37,37,38,38,39,39,40,40,41,41,42,42,43,43,44,44,45,45,46,46,47,47,48,48,49,49,50,50,51,51,52,52,54,54,56,56],"right_children":[2,4,6,8,10,12,14,16,18,20,22,24,26,28,30,-1,-1,32,34,36,38,40,42,44,46,48,50,52,54,56,58,-1,60,-1,62,64,66,68,70,72,74,76,78,80,82,84,86,88,90,92,94,96,98,-1,100,-1,102,-1,-1,-1,-1,-1,-1,-1,-1,-1,-1,-1,-1,-1,-1,-1,-1,-1,-1,-1,-1,-1,-1,-1,-1,-1,-1,-1,-1,-1,-1,-1,-1,-1,-1,-1,-1,-1,-1,-1,-1,-1,-1,-1,-1,-1,-1],"split_conditions":[-1.284613E0,-1.1775817E0,1.1838999E0,-1.0353214E0,-7.712571E-2,6.0438865E-1,1.4226779E0,-3.9142984E-1,7.8457236E-1,9.729814E-1,-2.369909E-1,7.184521E-1,8.163347E-1,1.4774939E0,4.3164104E-1,-6.2392693E-2,3.816936E-1,-1.2705263E0,-6.9895065E-1,-5.172603E-1,-4.0496784E-1,7.897119E-1,-4.9801138E-1,2.064136E0,-7.454477E-1,1.5720437E0,-6.615894E-1,-3.7458566E-1,-1.3399419E0,-1.3104821E0,1.763736E-1,2.992153E-1,-1.0923721E0,-3.1173167E-1,-8.3343214E-1,-1.5562786E-1,-1.8857607E0,3.6396915E-1,5.8627814E-1,-3.1601718E-1,-9.8759614E-2,3.482054E-1,-1.5630629E-2,9.950329E-1,3.432789E-1,-2.7054723E-2,1.3788322E0,-2.974666E-1,1.5907536E0,-6.864545E-1,-8.149331E-2,1.6671592E0,8.763242E-1,-1.76229E-1,8.412734E-1,7.4962504E-2,-1.660481E0,3.742952E-1,-2.6524344E-1,1.0411054E-1,-4.361189E-1,-5.3510647E-2,4.1098246E-1,-1.7636529E-1,2.4646088E-1,-2.0783585E-1,3.264783E-1,3.883664E-1,-1.8072781E-1,-4.4141963E-1,1.560703E-1,-3.855515E-1,-4.9730554E-2,-1.3148339E-1,4.300242E-1,-2.4702051E-1,1.7665993E-1,3.9037117E-1,2.778426E-2,-3.2361485E-2,6.1258003E-2,4.096112E-1,-5.2547164E-2,1.713926E-1,-1.0490391E-1,-1.5270388E-1,1.4718153E-1,1.4544018E-1,1.7286215E-2,-2.3821801E-1,3.3880457E-1,-1.583957E-1,2.5578427E-1,-2.785077E-1,-2.975692E-2,1.9562757E-1,-3.5350126E-1,-4.4390917E-2,2.1102187E-1,5.043196E-1,-7.5856015E-2,-1.310414E-1,-4.9071473E-1],"split_indices":[108,629,436,457,509,111,296,700,346,403,710,115,396,442,793,0,0,422,6,566,237,232,331,383,549,314,373,763,182,728,544,0,475,0,131,698,728,652,448,83,291,690,452,98,413,646,319,43,628,270,152,527,173,0,791,0,760,0,0,0,0,0,0,0,0,0,0,0,0,0,0,0,0,0,0,0,0,0,0,0,0,0,0,0,0,0,0,0,0,0,0,0,0,0,0,0,0,0,0,0,0,0,0],"split_type":[0,0,0,0,0,0,0,0,0,0,0,0,0,0,0,0,0,0,0,0,0,0,0,0,0,0,0,0,0,0,0,0,0,0,0,0,0,0,0,0,0,0,0,0,0,0,0,0,0,0,0,0,0,0,0,0,0,0,0,0,0,0,0,0,0,0,0,0,0,0,0,0,0,0,0,0,0,0,0,0,0,0,0,0,0,0,0,0,0,0,0,0,0,0,0,0,0,0,0,0,0,0,0],"sum_hessian":[1.8873906E3,1.8435005E2,1.7030405E3,2.5881542E1,1.584685E2,1.5107013E3,1.9233926E2,3.8688462E0,2.2012697E1,7.6164536E1,8.230396E1,1.0936016E3,4.170997E2,1.769721E2,1.5367164E1,1.0970304E0,2.7718158E0,1.641513E1,5.597567E0,6.5549866E1,1.0614674E1,3.404986E1,4.8254105E1,8.395094E2,2.5409224E2,3.3174393E2,8.535575E1,1.6359802E2,1.3374088E1,9.917189E0,5.449975E0,1.1704305E0,1.52446995E1,1.6336886E0,3.9638786E0,2.0898375E1,4.465149E1,4.2375965E0,6.377077E0,2.6318388E1,7.7314687E0,1.6547363E1,3.1706743E1,8.244524E2,1.5056963E1,6.083221E1,1.9326003E2,3.1130777E2,2.0436155E1,2.1102697E1,6.425306E1,5.5124752E1,1.0847327E2,1.9272683E0,1.144682E1,1.2371486E0,8.680039E0,3.3682005E0,2.0817742E0,2.1631985E0,1.3081501E1,1.1098382E0,2.8540404E0,9.271558E0,1.1626816E1,2.131201E0,4.252029E1,3.0547056E0,1.1828907E0,5.2254567E0,1.1516206E0,1.1332113E1,1.4986276E1,3.652977E0,4.078492E0,1.0513367E1,6.033996E0,1.4779075E1,1.6927668E1,6.8699457E2,1.3745786E2,1.0200192E1,4.856771E0,2.9305595E1,3.1526615E1,1.7797627E2,1.5283763E1,1.1446413E2,1.9684366E2,1.8107151E1,2.3290045E0,5.6694736E0,1.5433224E1,2.8685856E1,3.55672E1,5.2567295E1,2.5574582E0,8.897634E1,1.9496927E1,1.0065686E1,1.3811339E0,1.1117867E0,7.568253E0],"tree_param":{"num_deleted":"0","num_feature":"801","num_nodes":"103","size_leaf_vector":"1"}},{"base_weights":[1.2196412E-3,-4.8625532E-1,1.11396E-2,-7.1876484E-1,8.8034505E-1,-1.6741088E-1,3.6896136E-2,6.941587E-1,-9.138538E-1,-1.08771525E-1,4.044754E-1,3.8675472E-1,-2.617846E-1,4.7430813E-2,-6.0337675E-1,3.4423664E-1,-1.2083595E-1,2.3732924E-1,-1.0419035E0,-1.0008957E0,5.6909245E-1,-8.8931166E-2,-5.74329E-1,3.993349E-2,8.968619E-1,-9.198159E-1,6.499196E-1,-1.6074231E0,-5.114887E-1,-3.862218E-1,-3.0630859E-2,1.1284368E0,3.6483157E-2,-4.416542E-1,1.301924E-1,7.429526E-1,-7.2373176E-1,-2.3809686E-2,1.4236552E-1,-5.886303E-1,1.259501E0,-6.057859E-2,-1.3271686E0,-1.7648406E-1,3.777957E-1,-5.018102E-1,-1.3013053E-1,1.0443403E-1,-3.35771E-1,4.3564513E-1,-3.6087725E-2,-1.1462946E-1,3.7554315E-1,-2.7852935E-1,6.636991E-3,-8.569357E-2,1.5036705E-1,-3.026305E-1,3.682311E-1,1.4724848E-1,-2.595614E-1,-1.6211118E-1,8.117533E-4,-2.2427455E-1,5.075091E-2,-3.2650244E-1,6.0507737E-2,-4.985271E-2,4.4080645E-1,2.1788007E-1,-3.338154E-1,-4.6189383E-1,1.6836849E-1],"categories":[],"categories_nodes":[],"categories_segments":[],"categories_sizes":[],"default_left":[0,0,0,0,0,0,0,0,0,0,0,0,0,0,0,0,0,0,0,0,0,0,0,0,0,0,0,0,0,0,0,0,0,0,0,0,0,0,0,0,0,0,0,0,0,0,0,0,0,0,0,0,0,0,0,0,0,0,0,0,0,0,0,0,0,0,0,0,0,0,0,0,0],"id":8,"left_children":[1,3,5,7,9,11,13,15,17,-1,-1,19,21,23,25,-1,-1,-1,27,29,31,33,35,37,39,41,43,45,47,-1,-1,49,51,53,55,57,59,61,63,65,67,69,71,-1,-1,-1,-1,-1,-1,-1,-1,-1,-1,-1,-1,-1,-1,-1,-1,-1,-1,-1,-1,-1,-1,-1,-1,-1,-1,-1,-1,-1,-1],"loss_changes":[9.047549E0,1.2489365E1,8.438356E0,9.576183E0,3.9055452E0,1.2199577E1,1.0842395E1,2.7017453E0,7.1414204E0,0E0,0E0,9.189121E0,1.0660072E1,1.001481E1,1.0918798E1,0E0,0E0,0E0,7.380455E0,9.8073626E-1,9.118869E0,1.0015901E1,1.4396801E1,1.02246E1,8.154431E0,7.337099E0,5.14151E0,2.526512E-1,8.527678E0,0E0,0E0,6.2235546E0,9.01633E0,1.1217857E1,1.2524158E1,7.7448378E0,1.1379272E1,1.3229935E1,1.4453982E1,1.5550499E0,3.648695E0,7.3180885E0,6.6133194E0,0E0,0E0,0E0,0E0,0E0,0E0,0E0,0E0,0E0,0E0,0E0,0E0,0E0,0E0,0E0,0E0,0E0,0E0,0E0,0E0,0E0,0E0,0E0,0E0,0E0,0E0,0E0,0E0,0E0,0E0],"parents":[2147483647,0,0,1,1,2,2,3,3,4,4,5,5,6,6,7,7,8,8,11,11,12,12,13,13,14,14,18,18,19,19,20,20,21,21,22,22,23,23,24,24,25,25,26,26,27,27,28,28,31,31,32,32,33,33,34,34,35,35,36,36,37,37,38,38,39,39,40,40,41,41,42,42],"right_children":[2,4,6,8,10,12,14,16,18,-1,-1,20,22,24,26,-1,-1,-1,28,30,32,34,36,38,40,42,44,46,48,-1,-1,50,52,54,56,58,60,62,64,66,68,70,72,-1,-1,-1,-1,-1,-1,-1,-1,-1,-1,-1,-1,-1,-1,-1,-1,-1,-1,-1,-1,-1,-1,-1,-1,-1,-1,-1,-1,-1,-1],"split_conditions":[-2.0961275E0,9.7286576E-1,-1.1520743E0,-1.361337E0,-4.5216832E-1,-1.0675204E0,2.1301963E0,4.3467405E-1,-1.6233162E0,-1.08771525E-1,4.044754E-1,-1.5690303E0,3.6971515E-1,2.3841946E0,9.204633E-1,3.4423664E-1,-1.2083595E-1,2.3732924E-1,-4.1221312E-1,3.2148726E-2,-1.2336862E-1,-3.161774E-1,-1.3225366E0,3.0008295E-1,-1.1530342E0,-3.0920735E-1,-6.4435893E-1,1.5618573E0,-3.056387E-1,-3.862218E-1,-3.0630859E-2,7.319052E-1,8.420515E-1,-8.767918E-2,-1.6696307E-1,-1.098305E0,-1.217795E0,-1.6800736E0,-1.8468326E0,-1.164533E-1,-1.4664434E0,2.269959E-1,1.6038657E0,-1.7648406E-1,3.777957E-1,-5.018102E-1,-1.3013053E-1,1.0443403E-1,-3.35771E-1,4.3564513E-1,-3.6087725E-2,-1.1462946E-1,3.7554315E-1,-2.7852935E-1,6.636991E-3,-8.569357E-2,1.5036705E-1,-3.026305E-1,3.682311E-1,1.4724848E-1,-2.595614E-1,-1.6211118E-1,8.117533E-4,-2.2427455E-1,5.075091E-2,-3.2650244E-1,6.0507737E-2,-4.985271E-2,4.4080645E-1,2.1788007E-1,-3.338154E-1,-4.6189383E-1,1.6836849E-1],"split_indices":[311,453,266,41,118,727,351,83,672,0,0,65,226,67,85,0,0,0,585,450,306,562,575,69,223,390,530,229,323,0,0,194,141,21,421,92,410,258,688,61,545,426,158,0,0,0,0,0,0,0,0,0,0,0,0,0,0,0,0,0,0,0,0,0,0,0,0,0,0,0,0,0,0],"split_type":[0,0,0,0,0,0,0,0,0,0,0,0,0,0,0,0,0,0,0,0,0,0,0,0,0,0,0,0,0,0,0,0,0,0,0,0,0,0,0,0,0,0,0,0,0,0,0,0,0,0,0,0,0,0,0,0,0,0,0,0,0,0,0,0,0,0,0,0,0,0,0,0,0],"sum_hessian":[1.8688585E3,3.6314533E1,1.8325441E3,3.1439547E1,4.874986E0,2.3033147E2,1.6022125E3,3.5039778E0,2.7935568E1,1.3948671E0,3.480119E0,3.3066406E1,1.9726506E2,1.5771884E3,2.502421E1,2.4468188E0,1.057159E0,1.5897939E0,2.6345774E1,3.3189394E0,2.9747465E1,1.2784474E2,6.942032E1,1.5644272E3,1.27610655E1,2.0192085E1,4.8321257E0,1.1768207E1,1.4577568E1,2.1888292E0,1.1301101E0,1.3963917E1,1.5783548E1,4.8599163E1,7.924558E1,6.6667643E0,6.275356E1,9.648014E2,5.9962585E2,2.3816862E0,1.0379379E1,6.8634934E0,1.3328592E1,1.6052253E0,3.2269E0,1.0745352E1,1.0228539E0,6.2146873E0,8.362881E0,1.0959846E1,3.0040715E0,1.2250015E1,3.533533E0,2.3222809E1,2.5376354E1,3.747507E1,4.177051E1,1.2099329E0,5.4568315E0,6.2893543E0,5.6464203E1,4.6159924E1,9.186415E2,1.6745764E1,5.8288007E2,1.2280936E0,1.1535927E0,1.3584769E0,9.020903E0,4.1040163E0,2.759477E0,1.2146573E1,1.182019E0],"tree_param":{"num_deleted":"0","num_feature":"801","num_nodes":"73","size_leaf_vector":"1"}},{"base_weights":[3.8408206E-4,-5.9808875E-3,7.48738E-1,3.0776128E-2,-1.2893803E-1,1.1451964E0,-5.338819E-1,5.9797247E-3,3.5273916E-1,2.0627157E-1,-2.0936687E-1,1.339887E0,-1.5176585E-1,1.966876E-1,-3.3638722E-1,1.1051364E-1,-7.344421E-2,-6.0005736E-1,4.7177118E-1,4.6085685E-1,-2.753312E-1,-2.3993893E-1,9.039487E-1,-9.0987936E-2,4.6696037E-1,2.0062895E-1,-1.3853568E-1,-1.515887E-1,1.6971684E-1,-1.3588194E0,4.4197148E-1,9.104294E-1,1.8673258E-1,8.4035724E-1,-1.3761912E-1,-6.754737E-1,5.050331E-1,-3.3320853E-1,1.5447028E-1,1.2426165E0,-2.5522056E-1,1.766787E-1,3.7308663E-2,8.2072556E-2,-1.0512703E-1,-6.145139E-2,6.490373E-2,1.9099532E-1,3.236949E-3,-2.9021898E-2,-4.7206673E-1,3.251724E-1,-3.1436983E-1,-1.5308721E-1,3.201128E-1,2.0673145E-1,-5.580068E-2,-2.4923544E-1,2.9881933E-1,-1.9898054E-1,1.779277E-1,-2.8087047E-1,2.3843406E-1,3.3914632E-1,-1.5691784E-1,-7.2785445E-2,-2.610351E-1,9.226409E-2,-3.3839405E-1,-7.409852E-2,4.5704615E-1],"categories":[],"categories_nodes":[],"categories_segments":[],"categories_sizes":[],"default_left":[0,0,0,0,0,0,0,0,0,0,0,0,0,0,0,0,0,0,0,0,0,0,0,0,0,0,0,0,0,0,0,0,0,0,0,0,0,0,0,0,0,0,0,0,0,0,0,0,0,0,0,0,0,0,0,0,0,0,0,0,0,0,0,0,0,0,0,0,0,0,0],"id":9,"left_children":[1,3,5,7,9,11,13,15,17,19,21,23,-1,-1,-1,25,27,29,31,33,35,37,39,-1,-1,41,43,45,47,49,51,53,55,57,59,61,63,65,67,69,-1,-1,-1,-1,-1,-1,-1,-1,-1,-1,-1,-1,-1,-1,-1,-1,-1,-1,-1,-1,-1,-1,-1,-1,-1,-1,-1,-1,-1,-1,-1],"loss_changes":[8.855127E0,8.335432E0,8.583965E0,1.13344E1,1.1486443E1,4.629881E0,3.798349E0,1.09629545E1,1.179733E1,1.0258888E1,1.1884833E1,4.4847164E0,0E0,0E0,0E0,1.2822156E1,1.4284309E1,9.863031E0,1.1184332E1,1.2478718E1,9.459991E0,1.2354185E1,6.6263795E0,0E0,0E0,1.233573E1,1.3373948E1,1.1180789E1,1.3571225E1,1.7514648E0,6.5783954E0,8.445309E0,1.0670619E1,9.531902E0,8.836646E0,8.309152E0,7.3243036E0,1.2959852E1,1.3037565E1,3.8330202E0,0E0,0E0,0E0,0E0,0E0,0E0,0E0,0E0,0E0,0E0,0E0,0E0,0E0,0E0,0E0,0E0,0E0,0E0,0E0,0E0,0E0,0E0,0E0,0E0,0E0,0E0,0E0,0E0,0E0,0E0,0E0],"parents":[2147483647,0,0,1,1,2,2,3,3,4,4,5,5,6,6,7,7,8,8,9,9,10,10,11,11,15,15,16,16,17,17,18,18,19,19,20,20,21,21,22,22,25,25,26,26,27,27,28,28,29,29,30,30,31,31,32,32,33,33,34,34,35,35,36,36,37,37,38,38,39,39],"right_children":[2,4,6,8,10,12,14,16,18,20,22,24,-1,-1,-1,26,28,30,32,34,36,38,40,-1,-1,42,44,46,48,50,52,54,56,58,60,62,64,66,68,70,-1,-1,-1,-1,-1,-1,-1,-1,-1,-1,-1,-1,-1,-1,-1,-1,-1,-1,-1,-1,-1,-1,-1,-1,-1,-1,-1,-1,-1,-1,-1],"split_conditions":[2.433951E0,7.213033E-1,4.4286653E-1,5.5688554E-1,-8.601367E-1,1.0342827E0,-4.8772225E-1,-1.735373E-1,-1.2122959E0,4.6540278E-1,1.9706025E0,-1.7667494E0,-1.5176585E-1,1.966876E-1,-3.3638722E-1,6.157033E-1,6.8777907E-1,1.763027E-1,-1.7135035E-1,3.4788626E-1,4.303334E-1,9.1291195E-1,1.287053E0,-9.0987936E-2,4.6696037E-1,-1.0055491E0,-3.986676E-1,1.1026787E0,-6.5748155E-1,-2.4683747E-1,8.426713E-1,-1.6017377E0,-2.717487E-1,-1.4966272E0,3.4034792E-1,8.756207E-1,4.0117532E-2,1.1325362E0,1.4835652E0,-1.0002513E0,-2.5522056E-1,1.766787E-1,3.7308663E-2,8.2072556E-2,-1.0512703E-1,-6.145139E-2,6.490373E-2,1.9099532E-1,3.236949E-3,-2.9021898E-2,-4.7206673E-1,3.251724E-1,-3.1436983E-1,-1.5308721E-1,3.201128E-1,2.0673145E-1,-5.580068E-2,-2.4923544E-1,2.9881933E-1,-1.9898054E-1,1.779277E-1,-2.8087047E-1,2.3843406E-1,3.3914632E-1,-1.5691784E-1,-7.2785445E-2,-2.610351E-1,9.226409E-2,-3.3839405E-1,-7.409852E-2,4.5704615E-1],"split_indices":[551,421,114,421,302,774,18,486,280,412,29,434,0,0,0,520,475,251,211,601,759,635,254,0,0,317,147,720,345,130,111,718,558,629,710,683,602,63,304,93,0,0,0,0,0,0,0,0,0,0,0,0,0,0,0,0,0,0,0,0,0,0,0,0,0,0,0,0,0,0,0],"split_type":[0,0,0,0,0,0,0,0,0,0,0,0,0,0,0,0,0,0,0,0,0,0,0,0,0,0,0,0,0,0,0,0,0,0,0,0,0,0,0,0,0,0,0,0,0,0,0,0,0,0,0,0,0,0,0,0,0,0,0,0,0,0,0,0,0,0,0,0,0,0,0],"sum_hessian":[1.8571112E3,1.8424329E3,1.4678423E1,1.4189879E3,4.2344495E2,1.1294447E1,3.383976E0,1.3184633E3,1.00524605E2,8.163668E1,3.4180826E2,1.0271718E1,1.0227294E0,1.0802765E0,2.3036995E0,5.690784E2,7.493848E2,1.0714981E1,8.980962E1,5.3433628E1,2.8203056E1,3.3343646E2,8.371806E0,1.1499438E0,9.121774E0,4.180183E2,1.5106015E2,5.674125E2,1.8197235E2,6.024314E0,4.690667E0,3.4508675E1,5.530095E1,3.245156E1,2.0982065E1,1.873225E1,9.470806E0,2.697915E2,6.3644943E1,7.2620096E0,1.1097963E0,6.752148E1,3.5049683E2,5.1195793E1,9.986435E1,4.960631E2,7.134939E1,4.544553E1,1.3652681E2,1.0868757E0,4.937438E0,3.46863E0,1.2220371E0,3.2021348E0,3.130654E1,2.3192842E1,3.210811E1,2.3964E0,3.0055162E1,1.22570505E1,8.725014E0,1.6218914E1,2.513337E0,5.826546E0,3.6442592E0,2.3208467E2,3.770684E1,5.7537323E1,6.1076193E0,1.1711842E0,6.0908256E0],"tree_param":{"num_deleted":"0","num_feature":"801","num_nodes":"71","size_leaf_vector":"1"}},{"base_weights":[5.37918E-4,-1.155184E-2,3.6742368E-1,1.8938543E-1,-3.3126976E-2,7.57281E-1,-1.047716E-1,5.3790355E-1,6.0736453E-3,-4.3223895E-2,5.997155E-1,1.0463929E0,-2.8451204E-1,7.473073E-1,-5.141905E-1,-9.1946703E-1,6.722776E-1,1.8328232E-1,-5.478122E-1,-8.547859E-2,1.0631995E-1,-3.1101036E-1,9.708803E-1,1.309903E0,-1.397768E-1,-3.320977E-1,6.288459E-1,1.2638378E0,-3.522645E-1,7.5473434E-1,-8.8663256E-1,1.8569559E-1,-4.3033317E-1,8.0102855E-1,-5.1781255E-1,6.9664276E-1,-4.2418998E-2,2.2555448E-1,-9.034652E-1,-4.7737274E-2,-3.2035065E-1,-4.862627E-1,1.650366E-1,9.195053E-1,-1.0250931E0,-4.067787E-1,1.2724596E0,-8.404833E-2,1.5046761E0,-7.702177E-1,3.0409545E-1,-1.857275E-1,3.666731E-1,4.570871E-1,-5.435937E-3,-2.957738E-1,1.7081012E-1,-1.5623765E-1,3.780289E-1,-1.2134335E0,6.7657936E-1,2.6809672E-1,-1.7888694E-1,-4.0315312E-1,1.5940757E-1,3.2903612E-1,-3.890184E-2,-1.4694342E-1,1.2431655E-1,-2.4215916E-1,2.56482E-1,1.21575646E-1,-3.5030246E-1,-4.0078405E-2,2.4172636E-2,-5.296752E-2,-2.177919E-1,1.370724E-1,-2.5245082E-1,1.025606E-1,-1.435241E-2,4.2669296E-2,3.567627E-1,7.015981E-2,-4.1073564E-1,-3.6338627E-1,2.582763E-1,-9.4823435E-2,4.3605846E-1,2.8501436E-1,-2.9021823E-1,4.8282054E-1,-3.7869077E-2,-3.3755186E-1,4.601867E-2,-1.7557053E-2,-4.8955327E-1,-4.485985E-2,3.3890337E-1],"categories":[],"categories_nodes":[],"categories_segments":[],"categories_sizes":[],"default_left":[0,0,0,0,0,0,0,0,0,0,0,0,0,0,0,0,0,0,0,0,0,0,0,0,0,0,0,0,0,0,0,0,0,0,0,0,0,0,0,0,0,0,0,0,0,0,0,0,0,0,0,0,0,0,0,0,0,0,0,0,0,0,0,0,0,0,0,0,0,0,0,0,0,0,0,0,0,0,0,0,0,0,0,0,0,0,0,0,0,0,0,0,0,0,0,0,0,0,0],"id":10,"left_children":[1,3,5,7,9,11,13,15,17,19,21,23,25,27,29,31,33,35,37,39,41,43,45,47,49,-1,51,53,55,57,59,-1,-1,61,63,65,67,69,71,73,75,77,79,81,83,85,87,89,91,93,-1,-1,-1,-1,-1,-1,-1,-1,-1,95,97,-1,-1,-1,-1,-1,-1,-1,-1,-1,-1,-1,-1,-1,-1,-1,-1,-1,-1,-1,-1,-1,-1,-1,-1,-1,-1,-1,-1,-1,-1,-1,-1,-1,-1,-1,-1,-1,-1],"loss_changes":[8.188495E0,7.7544565E0,1.09208355E1,1.1077602E1,1.034416E1,1.00505295E1,9.982121E0,1.2323322E1,1.1355867E1,1.0058598E1,8.896921E0,8.172403E0,6.5708222E0,5.7481055E0,9.731571E0,5.220183E0,8.888607E0,1.0182472E1,7.9178047E0,1.0981528E1,1.2286811E1,8.077143E0,8.123741E0,5.8309097E0,4.8162966E0,0E0,3.9728684E0,2.2158222E0,2.7607596E0,3.809196E0,8.629094E0,0E0,0E0,7.042774E0,5.919409E0,9.009309E0,1.2834975E1,6.9528227E0,7.185025E0,1.1798427E1,9.878803E0,1.1066218E1,1.2059998E1,5.6641126E-1,2.7503033E0,5.1688247E0,4.849169E0,4.1371393E0,3.360798E0,1.535301E0,0E0,0E0,0E0,0E0,0E0,0E0,0E0,0E0,0E0,6.186182E0,1.3984652E0,0E0,0E0,0E0,0E0,0E0,0E0,0E0,0E0,0E0,0E0,0E0,0E0,0E0,0E0,0E0,0E0,0E0,0E0,0E0,0E0,0E0,0E0,0E0,0E0,0E0,0E0,0E0,0E0,0E0,0E0,0E0,0E0,0E0,0E0,0E0,0E0,0E0,0E0],"parents":[2147483647,0,0,1,1,2,2,3,3,4,4,5,5,6,6,7,7,8,8,9,9,10,10,11,11,12,12,13,13,14,14,15,15,16,16,17,17,18,18,19,19,20,20,21,21,22,22,23,23,24,24,26,26,27,27,28,28,29,29,30,30,33,33,34,34,35,35,36,36,37,37,38,38,39,39,40,40,41,41,42,42,43,43,44,44,45,45,46,46,47,47,48,48,49,49,59,59,60,60],"right_children":[2,4,6,8,10,12,14,16,18,20,22,24,26,28,30,32,34,36,38,40,42,44,46,48,50,-1,52,54,56,58,60,-1,-1,62,64,66,68,70,72,74,76,78,80,82,84,86,88,90,92,94,-1,-1,-1,-1,-1,-1,-1,-1,-1,96,98,-1,-1,-1,-1,-1,-1,-1,-1,-1,-1,-1,-1,-1,-1,-1,-1,-1,-1,-1,-1,-1,-1,-1,-1,-1,-1,-1,-1,-1,-1,-1,-1,-1,-1,-1,-1,-1,-1],"split_conditions":[1.8725454E0,-9.980634E-1,1.16189726E-1,-3.700445E-1,2.1423256E0,7.943293E-1,-3.929745E-1,-1.4991583E0,7.847474E-1,7.7324396E-1,-4.8192012E-1,7.515952E-1,-5.328835E-1,6.2867177E-1,-6.360302E-1,-7.38609E-1,1.2845849E0,-5.6901443E-1,-5.701834E-1,1.1015211E0,-1.2947943E0,-1.02380276E-1,-1.0350614E0,-8.002049E-1,3.117675E-1,-3.320977E-1,-2.125789E-1,8.709351E-1,-5.252702E-1,-5.4153126E-1,7.8057635E-1,1.8569559E-1,-4.3033317E-1,1.3987064E0,3.174031E-1,3.516988E-1,2.1253377E-2,-2.617208E-1,-1.3904849E0,2.4611798E-1,7.4661225E-1,-6.183389E-1,1.2374142E-1,-2.5224063E-1,-7.5927526E-1,-3.805913E-1,-1.2849438E0,1.2526491E-1,1.4791651E0,4.2550462E-1,3.0409545E-1,-1.857275E-1,3.666731E-1,4.570871E-1,-5.435937E-3,-2.957738E-1,1.7081012E-1,-1.5623765E-1,3.780289E-1,-5.539498E-1,-3.806149E-2,2.6809672E-1,-1.7888694E-1,-4.0315312E-1,1.5940757E-1,3.2903612E-1,-3.890184E-2,-1.4694342E-1,1.2431655E-1,-2.4215916E-1,2.56482E-1,1.21575646E-1,-3.5030246E-1,-4.0078405E-2,2.4172636E-2,-5.296752E-2,-2.177919E-1,1.370724E-1,-2.5245082E-1,1.025606E-1,-1.435241E-2,4.2669296E-2,3.567627E-1,7.015981E-2,-4.1073564E-1,-3.6338627E-1,2.582763E-1,-9.4823435E-2,4.3605846E-1,2.8501436E-1,-2.9021823E-1,4.8282054E-1,-3.7869077E-2,-3.3755186E-1,4.601867E-2,-1.7557053E-2,-4.8955327E-1,-4.485985E-2,3.3890337E-1],"split_indices":[208,774,648,13,442,454,163,49,182,569,408,752,440,731,583,369,164,459,177,673,311,377,299,156,298,0,294,88,366,631,220,0,0,249,115,745,666,131,259,527,560,364,613,73,57,603,785,78,18,575,0,0,0,0,0,0,0,0,0,767,85,0,0,0,0,0,0,0,0,0,0,0,0,0,0,0,0,0,0,0,0,0,0,0,0,0,0,0,0,0,0,0,0,0,0,0,0,0,0],"split_type":[0,0,0,0,0,0,0,0,0,0,0,0,0,0,0,0,0,0,0,0,0,0,0,0,0,0,0,0,0,0,0,0,0,0,0,0,0,0,0,0,0,0,0,0,0,0,0,0,0,0,0,0,0,0,0,0,0,0,0,0,0,0,0,0,0,0,0,0,0,0,0,0,0,0,0,0,0,0,0,0,0,0,0,0,0,0,0,0,0,0,0,0,0,0,0,0,0,0,0],"sum_hessian":[1.8441448E3,1.7862521E3,5.7892742E1,1.7244351E2,1.6138085E3,3.1380444E1,2.6512297E1,5.8771305E1,1.136722E2,1.5893818E3,2.4426683E1,2.4560228E1,6.820216E0,8.336715E0,1.8175583E1,4.4682093E0,5.4303097E1,8.662632E1,2.704588E1,1.2395629E3,3.49819E2,7.119547E0,1.7307137E1,2.001053E1,4.549697E0,3.477089E0,3.3431273E0,5.570533E0,2.7661822E0,3.891305E0,1.4284278E1,1.0699253E0,3.398284E0,4.92968E1,5.0062976E0,2.5817507E1,6.0808815E1,8.634966E0,1.8410915E1,1.0689912E3,1.7057169E2,3.0880817E1,3.1893817E2,2.5087562E0,4.6107907E0,3.0455928E0,1.4261544E1,2.522927E0,1.7487604E1,3.156599E0,1.3930981E0,1.0634189E0,2.2797086E0,4.475142E0,1.0953908E0,1.5978602E0,1.1683218E0,1.0955696E0,2.7957354E0,1.1999459E1,2.2848184E0,4.657015E1,2.7266505E0,2.6438696E0,2.362428E0,1.7173769E1,8.643739E0,3.0684496E1,3.0124317E1,3.1627417E0,5.4722238E0,3.002871E0,1.5408044E1,6.404249E2,4.2856622E2,1.2698946E2,4.358222E1,8.370566E0,2.2510252E1,1.7388806E2,1.4505013E2,1.039712E0,1.4690441E0,1.0582691E0,3.5525217E0,1.890403E0,1.1551898E0,1.3829668E0,1.2878577E1,1.1274996E0,1.3954275E0,1.6444817E1,1.0427881E0,2.1226218E0,1.0339773E0,3.4942884E0,8.505171E0,1.0465934E0,1.238225E0],"tree_param":{"num_deleted":"0","num_feature":"801","num_nodes":"99","size_leaf_vector":"1"}},{"base_weights":[6.984149E-4,-8.349572E-2,4.5571435E-2,4.2649278E-1,-1.1843048E-1,6.240649E-2,-5.4813474E-1,-6.4780474E-1,6.512864E-1,-1.1261631E0,-9.873577E-2,-2.092572E-1,9.264071E-2,-1.2596647E0,-1.5190476E-1,-1.1134917E0,2.7379093E-1,8.270135E-1,-8.020268E-1,-1.4402206E0,6.3656256E-2,-1.9772689E-1,8.1131615E-2,3.528045E-1,-3.5281083E-1,3.305344E-1,5.2025817E-2,1.0859882E-2,-4.609517E-1,9.4174725E-1,-6.019384E-1,-4.024425E-1,-5.330496E-3,1.0649234E0,-6.0435164E-1,-3.8103017E-1,8.616272E-2,-2.0779502E-2,-4.8274776E-1,-2.5350663E-1,4.5333838E-1,-6.023244E-2,4.3161193E-1,8.8624835E-1,-4.2646995E-1,-9.110146E-1,-1.4664252E-1,-6.436409E-2,5.844395E-1,-8.378219E-2,1.3126597E-1,4.2151117E-1,-5.9791416E-2,-1.0319791E0,5.678339E-1,4.3043438E-1,1.0040986E-1,-3.7049228E-1,1.9611144E-1,2.6687518E-2,-1.08798616E-1,2.0905791E-1,-2.3964307E-1,-1.8098263E-1,3.4490995E-2,-9.979157E-3,2.2567612E-1,3.374944E-1,-2.3502189E-1,-3.4771234E-1,1.9402735E-1,1.8925877E-1,-3.486621E-1,-1.382268E-1,7.147781E-2,-8.1461504E-2,2.3870917E-1,-1.706731E-1,1.998611E-1,7.529602E-2,-5.463093E-2,1.3257017E-2,1.17186636E-1,-4.244995E-1,8.962666E-2,3.5032088E-1,-1.449048E-1],"categories":[],"categories_nodes":[],"categories_segments":[],"categories_sizes":[],"default_left":[0,0,0,0,0,0,0,0,0,0,0,0,0,0,0,0,0,0,0,0,0,0,0,0,0,0,0,0,0,0,0,0,0,0,0,0,0,0,0,0,0,0,0,0,0,0,0,0,0,0,0,0,0,0,0,0,0,0,0,0,0,0,0,0,0,0,0,0,0,0,0,0,0,0,0,0,0,0,0,0,0,0,0,0,0,0,0],"id":11,"left_children":[1,3,5,7,9,11,13,15,17,19,21,23,25,27,29,31,-1,33,35,37,-1,39,41,43,45,47,49,-1,-1,51,53,-1,-1,55,57,-1,-1,-1,-1,59,61,63,65,67,69,71,73,75,77,79,81,-1,-1,83,85,-1,-1,-1,-1,-1,-1,-1,-1,-1,-1,-1,-1,-1,-1,-1,-1,-1,-1,-1,-1,-1,-1,-1,-1,-1,-1,-1,-1,-1,-1,-1,-1],"loss_changes":[6.9152026E0,1.1388271E1,1.1968215E1,1.0326752E1,1.1724662E1,9.563219E0,9.119443E0,6.5378556E0,9.452714E0,5.0700808E0,1.0450277E1,9.538448E0,1.0092076E1,4.244196E0,1.1566961E1,1.5505643E0,0E0,1.1266945E1,2.516419E0,2.0446644E0,0E0,1.38526745E1,1.0368001E1,1.0453153E1,1.0619557E1,1.5317619E1,9.641371E0,0E0,0E0,3.9305873E0,8.8582E0,0E0,0E0,6.842127E0,4.8408217E0,0E0,0E0,0E0,0E0,1.3081203E1,9.768498E0,1.430467E1,8.986012E0,6.745798E0,9.023836E0,1.0419893E1,8.503718E0,1.1003059E1,9.135426E0,1.0919376E1,1.275465E1,0E0,0E0,6.7321587E0,3.7572713E0,0E0,0E0,0E0,0E0,0E0,0E0,0E0,0E0,0E0,0E0,0E0,0E0,0E0,0E0,0E0,0E0,0E0,0E0,0E0,0E0,0E0,0E0,0E0,0E0,0E0,0E0,0E0,0E0,0E0,0E0,0E0,0E0],"parents":[2147483647,0,0,1,1,2,2,3,3,4,4,5,5,6,6,7,7,8,8,9,9,10,10,11,11,12,12,13,13,14,14,15,15,17,17,18,18,19,19,21,21,22,22,23,23,24,24,25,25,26,26,29,29,30,30,33,33,34,34,39,39,40,40,41,41,42,42,43,43,44,44,45,45,46,46,47,47,48,48,49,49,50,50,53,53,54,54],"right_children":[2,4,6,8,10,12,14,16,18,20,22,24,26,28,30,32,-1,34,36,38,-1,40,42,44,46,48,50,-1,-1,52,54,-1,-1,56,58,-1,-1,-1,-1,60,62,64,66,68,70,72,74,76,78,80,82,-1,-1,84,86,-1,-1,-1,-1,-1,-1,-1,-1,-1,-1,-1,-1,-1,-1,-1,-1,-1,-1,-1,-1,-1,-1,-1,-1,-1,-1,-1,-1,-1,-1,-1,-1],"split_conditions":[-3.846926E-1,-1.4707068E0,1.87246E0,-1.1754575E0,-2.0343623E0,-1.2996676E0,-4.7326127E-1,5.1459914E-1,1.3546386E0,7.2765446E-1,4.0516093E-1,-8.160109E-1,-1.025072E0,-8.246503E-1,-8.4536904E-1,3.615321E-1,2.7379093E-1,1.3100556E0,7.540743E-2,-9.4198155E-1,6.3656256E-2,1.4565144E0,6.2181175E-1,2.3026799E-1,-6.903861E-1,-2.5761786E-1,-3.2025144E-1,1.0859882E-2,-4.609517E-1,9.742401E-1,9.0294784E-1,-4.024425E-1,-5.330496E-3,2.2946942E-1,4.7609925E-2,-3.8103017E-1,8.616272E-2,-2.0779502E-2,-4.8274776E-1,-7.011557E-1,1.1603209E0,-6.001007E-1,-1.8754524E-1,1.3854324E0,-8.222429E-2,-1.0624347E0,8.2694754E-2,9.4388896E-1,-1.52816E0,-6.841816E-1,6.6386724E-1,4.2151117E-1,-5.9791416E-2,6.399418E-1,6.199534E-1,4.3043438E-1,1.0040986E-1,-3.7049228E-1,1.9611144E-1,2.6687518E-2,-1.08798616E-1,2.0905791E-1,-2.3964307E-1,-1.8098263E-1,3.4490995E-2,-9.979157E-3,2.2567612E-1,3.374944E-1,-2.3502189E-1,-3.4771234E-1,1.9402735E-1,1.8925877E-1,-3.486621E-1,-1.382268E-1,7.147781E-2,-8.1461504E-2,2.3870917E-1,-1.706731E-1,1.998611E-1,7.529602E-2,-5.463093E-2,1.3257017E-2,1.17186636E-1,-4.244995E-1,8.962666E-2,3.5032088E-1,-1.449048E-1],"split_indices":[435,273,3,440,358,178,110,88,83,143,558,334,446,343,792,530,0,782,206,334,0,70,365,218,740,649,21,0,0,797,773,0,0,95,743,0,0,0,0,112,129,200,624,669,338,594,530,529,154,742,555,0,0,27,183,0,0,0,0,0,0,0,0,0,0,0,0,0,0,0,0,0,0,0,0,0,0,0,0,0,0,0,0,0,0,0,0],"split_type":[0,0,0,0,0,0,0,0,0,0,0,0,0,0,0,0,0,0,0,0,0,0,0,0,0,0,0,0,0,0,0,0,0,0,0,0,0,0,0,0,0,0,0,0,0,0,0,0,0,0,0,0,0,0,0,0,0,0,0,0,0,0,0,0,0,0,0,0,0,0,0,0,0,0,0,0,0,0,0,0,0,0,0,0,0,0,0],"sum_hessian":[1.8283582E3,6.3536945E2,1.1929886E3,4.001466E1,5.953548E2,1.1609634E3,3.2025246E1,6.598482E0,3.3416176E1,1.0335398E1,5.850194E2,1.156742E2,1.0452892E3,1.0675532E1,2.1349712E1,5.3024745E0,1.2960079E0,3.0195982E1,3.2201946E0,8.309398E0,2.0260005E0,3.772811E2,2.0773828E2,2.3236742E1,9.243746E1,1.5139351E2,8.9389575E2,2.0322087E0,8.643324E0,5.905591E0,1.544412E1,4.20357E0,1.0989043E0,2.6111883E1,4.084098E0,2.1361759E0,1.0840187E0,1.0662942E0,7.2431035E0,3.4807092E2,2.9210197E1,1.4862105E2,5.911723E1,1.3712634E1,9.524108E0,2.4010334E1,6.842713E1,5.9539017E1,9.185449E1,3.2935828E2,5.645375E2,4.035674E0,1.8699168E0,1.1378767E1,4.065354E0,1.6692366E1,9.4195175E0,2.7326548E0,1.351443E0,8.417251E1,2.638984E2,2.482553E1,4.384668E0,3.5657303E1,1.12963745E2,2.449701E1,3.462022E1,1.22826395E1,1.429995E0,5.6128755E0,3.9112327E0,3.1518817E0,2.0858452E1,3.7569813E1,3.0857317E1,4.8532608E1,1.1006407E1,5.6863203E0,8.6168175E1,7.441906E1,2.5493921E2,4.235168E2,1.4102063E2,8.786475E0,2.592292E0,2.5171494E0,1.5482042E0],"tree_param":{"num_deleted":"0","num_feature":"801","num_nodes":"87","size_leaf_vector":"1"}},{"base_weights":[6.7532187E-6,-9.010978E-2,4.3290213E-2,1.03248954E-1,-1.7009026E-1,2.4831153E-1,3.721401E-3,4.9382883E-1,-9.267527E-2,-3.1485146E-1,-4.5538545E-3,-3.8663882E-1,3.2867053E-1,3.4201396E-1,-2.6825815E-2,7.859918E-1,-3.2861295E-1,1.2869191E-1,-4.7732177E-1,-1.2999669E-1,-7.5269693E-1,1.1065339E-1,-5.136398E-1,-8.750549E-1,3.5158837E-1,8.076542E-1,1.9284512E-1,6.954988E-1,-2.3060754E-2,-7.0981073E-1,-1.244692E-2,-3.685482E-1,9.3512243E-1,-9.9872124E-1,4.9110234E-1,-4.0934825E-1,3.766438E-1,-8.70625E-1,4.0531825E-2,-4.5591643E-1,6.8720296E-2,3.6108303E-1,-8.878734E-1,-4.7203347E-2,6.2469393E-1,-7.4438304E-1,4.6011153E-1,-1.1263288E0,2.1585168E-1,-5.0916415E-1,1.2288516E0,-1.9704726E-1,1.0078052E0,4.7741315E-1,-8.22709E-2,1.0418884E0,1.4414084E-1,-1.0945011E0,2.0520355E-1,-9.291865E-1,2.6077428E-1,3.127018E-1,-4.195942E-2,-3.1915602E-1,2.4543156E-1,-1.5036908E-1,3.2193983E-1,1.8060617E-1,-4.2784214E-1,-2.2368921E-1,3.4539354E-1,-2.3147471E-1,2.1720608E-1,-4.930637E-2,1.9634345E-1,-3.5496154E-1,-1.1658737E-3,2.3971209E-1,-1.3528833E-1,-4.220884E-2,-3.054883E-1,1.8568642E-1,-5.0405227E-2,-2.013523E-1,3.1713784E-1,-3.3138055E-1,-3.76134E-2,-2.9073662E-1,1.32469535E-2,2.4611697E-1,-2.0498958E-1,8.010723E-2,-2.9773268E-1,3.693825E-1,-2.1333696E-1,1.5228623E-1,-4.0174726E-1,-3.0736372E-1,2.4957003E-1,1.00610755E-1,4.15612E-1,2.1409549E-1,-3.961986E-1,3.5683888E-1,-3.0148217E-2,-1.3206092E-1,1.8242659E-1,4.3569524E-2,-1.9746444E-1,8.436705E-2,4.2010346E-1,2.061137E-1,-2.1071194E-1,-4.0934917E-1,1.04137465E-1,-1.9643405E-1,1.6168475E-1,-3.73073E-1,1.1963331E-1,1.4780673E-1,-1.3379295E-1,1.1036613E-1,-2.0642558E-2],"categories":[],"categories_nodes":[],"categories_segments":[],"categories_sizes":[],"default_left":[0,0,0,0,0,0,0,0,0,0,0,0,0,0,0,0,0,0,0,0,0,0,0,0,0,0,0,0,0,0,0,0,0,0,0,0,0,0,0,0,0,0,0,0,0,0,0,0,0,0,0,0,0,0,0,0,0,0,0,0,0,0,0,0,0,0,0,0,0,0,0,0,0,0,0,0,0,0,0,0,0,0,0,0,0,0,0,0,0,0,0,0,0,0,0,0,0,0,0,0,0,0,0,0,0,0,0,0,0,0,0,0,0,0,0,0,0,0,0,0,0,0,0],"id":12,"left_children":[1,3,5,7,9,11,13,15,17,19,21,23,25,27,29,31,33,35,37,39,41,43,45,47,49,51,53,55,57,59,61,63,65,67,69,71,73,75,77,79,81,83,85,87,89,91,93,95,-1,97,99,101,103,105,107,109,111,113,115,117,-1,119,121,-1,-1,-1,-1,-1,-1,-1,-1,-1,-1,-1,-1,-1,-1,-1,-1,-1,-1,-1,-1,-1,-1,-1,-1,-1,-1,-1,-1,-1,-1,-1,-1,-1,-1,-1,-1,-1,-1,-1,-1,-1,-1,-1,-1,-1,-1,-1,-1,-1,-1,-1,-1,-1,-1,-1,-1,-1,-1,-1,-1],"loss_changes":[7.07561E0,9.119867E0,9.940261E0,1.3272422E1,9.984879E0,1.0241503E1,1.0634428E1,1.4170186E1,9.93402E0,1.7894896E1,1.1518951E1,8.502811E0,1.1327013E1,1.1014517E1,9.2614565E0,7.750971E0,9.21403E0,1.0077135E1,8.704779E0,1.0233177E1,1.022485E1,1.3027986E1,8.485624E0,6.405957E0,7.9980755E0,7.976673E0,1.0907448E1,8.125793E0,1.0715335E1,7.5438347E0,8.894378E0,5.522174E0,8.145561E0,7.0625563E0,7.2382874E0,1.0388533E1,7.83895E0,6.561697E0,7.566247E0,1.0456691E1,1.2963968E1,6.3359213E0,9.603809E0,1.0443372E1,1.0211965E1,7.7117176E0,7.704659E0,5.010725E0,0E0,4.747078E0,2.5257397E-1,8.373386E0,6.6461525E0,8.467744E0,9.455711E0,6.81896E0,8.699957E0,3.467371E0,1.0743731E1,7.825961E0,0E0,1.075255E1,9.371982E0,0E0,0E0,0E0,0E0,0E0,0E0,0E0,0E0,0E0,0E0,0E0,0E0,0E0,0E0,0E0,0E0,0E0,0E0,0E0,0E0,0E0,0E0,0E0,0E0,0E0,0E0,0E0,0E0,0E0,0E0,0E0,0E0,0E0,0E0,0E0,0E0,0E0,0E0,0E0,0E0,0E0,0E0,0E0,0E0,0E0,0E0,0E0,0E0,0E0,0E0,0E0,0E0,0E0,0E0,0E0,0E0,0E0,0E0,0E0,0E0],"parents":[2147483647,0,0,1,1,2,2,3,3,4,4,5,5,6,6,7,7,8,8,9,9,10,10,11,11,12,12,13,13,14,14,15,15,16,16,17,17,18,18,19,19,20,20,21,21,22,22,23,23,24,24,25,25,26,26,27,27,28,28,29,29,30,30,31,31,32,32,33,33,34,34,35,35,36,36,37,37,38,38,39,39,40,40,41,41,42,42,43,43,44,44,45,45,46,46,47,47,49,49,50,50,51,51,52,52,53,53,54,54,55,55,56,56,57,57,58,58,59,59,61,61,62,62],"right_children":[2,4,6,8,10,12,14,16,18,20,22,24,26,28,30,32,34,36,38,40,42,44,46,48,50,52,54,56,58,60,62,64,66,68,70,72,74,76,78,80,82,84,86,88,90,92,94,96,-1,98,100,102,104,106,108,110,112,114,116,118,-1,120,122,-1,-1,-1,-1,-1,-1,-1,-1,-1,-1,-1,-1,-1,-1,-1,-1,-1,-1,-1,-1,-1,-1,-1,-1,-1,-1,-1,-1,-1,-1,-1,-1,-1,-1,-1,-1,-1,-1,-1,-1,-1,-1,-1,-1,-1,-1,-1,-1,-1,-1,-1,-1,-1,-1,-1,-1,-1,-1,-1,-1],"split_conditions":[-4.5358372E-1,-5.6403476E-1,-9.911661E-1,-4.205744E-1,8.181666E-2,-1.2366297E0,-1.454537E0,5.275082E-1,3.7110153E-1,4.4325426E-1,8.552811E-1,3.8973442E-1,-8.702108E-1,8.653196E-3,-2.0526786E0,-1.1690644E0,-1.0691556E-2,-7.1984243E-1,1.6012557E-1,-3.234215E-1,-1.1515112E0,6.8777907E-1,7.159899E-1,1.1989274E0,-2.0691782E-1,-1.1142178E0,-1.003854E-1,1.1750094E-1,-1.0678462E0,1.411024E0,-1.3913784E0,4.0645778E-1,-1.2610782E0,-1.4043415E0,-3.6047563E-1,7.877341E-1,-3.03666E-1,5.129707E-1,-2.5317392E-1,2.235084E-1,-5.47314E-1,-9.340578E-1,7.7214456E-1,-1.406114E0,1.2129291E0,-6.749289E-1,1.7631632E-1,-1.1529543E0,2.1585168E-1,7.6311976E-1,-1.0245701E0,1.9020972E-1,9.618777E-1,-1.0164713E0,6.846999E-1,-3.5091463E-1,4.5149896E-1,7.545508E-1,-6.9019383E-1,1.1379861E0,2.6077428E-1,1.0177038E0,-1.5617567E0,-3.1915602E-1,2.4543156E-1,-1.5036908E-1,3.2193983E-1,1.8060617E-1,-4.2784214E-1,-2.2368921E-1,3.4539354E-1,-2.3147471E-1,2.1720608E-1,-4.930637E-2,1.9634345E-1,-3.5496154E-1,-1.1658737E-3,2.3971209E-1,-1.3528833E-1,-4.220884E-2,-3.054883E-1,1.8568642E-1,-5.0405227E-2,-2.013523E-1,3.1713784E-1,-3.3138055E-1,-3.76134E-2,-2.9073662E-1,1.32469535E-2,2.4611697E-1,-2.0498958E-1,8.010723E-2,-2.9773268E-1,3.693825E-1,-2.1333696E-1,1.5228623E-1,-4.0174726E-1,-3.0736372E-1,2.4957003E-1,1.00610755E-1,4.15612E-1,2.1409549E-1,-3.961986E-1,3.5683888E-1,-3.0148217E-2,-1.3206092E-1,1.8242659E-1,4.3569524E-2,-1.9746444E-1,8.436705E-2,4.2010346E-1,2.061137E-1,-2.1071194E-1,-4.0934917E-1,1.04137465E-1,-1.9643405E-1,1.6168475E-1,-3.73073E-1,1.1963331E-1,1.4780673E-1,-1.3379295E-1,1.1036613E-1,-2.0642558E-2],"split_indices":[479,330,60,629,747,295,786,355,489,300,350,239,766,50,669,19,331,790,536,92,654,475,468,376,108,324,620,581,271,621,687,586,30,339,353,15,685,28,348,178,359,787,748,71,273,442,351,417,0,15,109,761,427,125,755,538,349,682,272,428,0,522,206,0,0,0,0,0,0,0,0,0,0,0,0,0,0,0,0,0,0,0,0,0,0,0,0,0,0,0,0,0,0,0,0,0,0,0,0,0,0,0,0,0,0,0,0,0,0,0,0,0,0,0,0,0,0,0,0,0,0,0,0],"split_type":[0,0,0,0,0,0,0,0,0,0,0,0,0,0,0,0,0,0,0,0,0,0,0,0,0,0,0,0,0,0,0,0,0,0,0,0,0,0,0,0,0,0,0,0,0,0,0,0,0,0,0,0,0,0,0,0,0,0,0,0,0,0,0,0,0,0,0,0,0,0,0,0,0,0,0,0,0,0,0,0,0,0,0,0,0,0,0,0,0,0,0,0,0,0,0,0,0,0,0,0,0,0,0,0,0,0,0,0,0,0,0,0,0,0,0,0,0,0,0,0,0,0,0],"sum_hessian":[1.8120009E3,5.875775E2,1.2244233E3,1.7184312E2,4.157344E2,1.9722885E2,1.0271945E3,5.6897003E1,1.1494611E2,2.2130322E2,1.9443118E2,2.1728828E1,1.7550002E2,8.422754E1,9.429669E2,4.201572E1,1.4881281E1,7.3380486E1,4.1565636E1,1.5651906E2,6.4784164E1,1.5918901E2,3.524217E1,1.2965452E1,8.763376E0,3.7679234E1,1.3782079E2,4.2333187E1,4.189435E1,1.8445738E1,9.245212E2,4.637993E0,3.7377728E1,8.067672E0,6.8136096E0,2.2943531E1,5.0436954E1,2.3236551E1,1.8329084E1,5.879458E1,9.772448E1,6.8308144E0,5.7953354E1,1.22483665E2,3.6705345E1,2.8681309E1,6.5608616E0,1.145413E1,1.5113213E0,4.6351056E0,4.1282706E0,6.261877E0,3.1417356E1,6.738518E1,7.043561E1,2.5452826E1,1.6880363E1,6.6913257E0,3.5203022E1,1.6557053E1,1.8886855E0,7.61339E1,8.4838727E2,2.9896991E0,1.6482939E0,3.0458627E0,3.4331867E1,1.6141106E0,6.453561E0,2.3263688E0,4.487241E0,1.762852E1,5.31501E0,1.7252117E1,3.3184834E1,1.6809324E1,6.4272265E0,6.9608464E0,1.13682375E1,3.8477566E1,2.031701E1,2.891189E1,6.8812584E1,2.7653813E0,4.065433E0,4.4777367E1,1.3175986E1,1.017719E1,1.1230647E2,3.2252636E1,4.452707E0,5.633893E0,2.3047415E1,3.9251833E0,2.6356785E0,1.1603854E0,1.0293745E1,3.518817E0,1.1162887E0,1.0838579E0,3.0444129E0,3.6601536E0,2.6017237E0,2.69301E1,4.4872575E0,8.104674E0,5.9280502E1,5.1027252E1,1.9408356E1,8.724175E0,1.672865E1,1.0399263E1,6.4811E0,5.680879E0,1.0104464E0,9.573208E0,2.5629816E1,1.3438975E1,3.1180766E0,6.1818745E1,1.4315156E1,5.1379963E1,7.970073E2],"tree_param":{"num_deleted":"0","num_feature":"801","num_nodes":"123","size_leaf_vector":"1"}},{"base_weights":[-1.9072401E-4,1.7313156E-2,-2.0455424E-1,1.9477357E-1,-1.1134136E-2,-1.2417104E-1,-1.0842717E0,4.3143714E-3,4.1637844E-1,-5.038373E-1,5.303915E-4,1.4562272E-1,-4.4346595E-1,-1.3632355E0,1.3265194E-1,-6.412222E-1,1.2544218E-1,2.4152362E-1,9.154368E-1,-1.0224717E0,-9.14241E-2,1.0541896E-1,-5.2323025E-2,-7.930518E-2,7.0569044E-1,6.183769E-1,-5.8859E-1,2.1014217E-2,-4.6594653E-1,-9.3389523E-1,8.015127E-1,1.8853453E-1,-3.7225038E-1,1.0948005E0,1.2253649E-1,1.1190021E0,-2.332616E-1,9.544152E-2,-1.3419657E0,-5.7927805E-1,6.019658E-1,-1.7956182E-2,3.3231652E-1,-9.624895E-2,2.1952106E-1,-6.3552845E-1,2.5313032E-1,-3.482575E-1,1.1238734E0,-4.600926E-1,4.0016222E-1,-1.0576334E0,-1.6468899E-1,2.209759E-1,-3.5597733E-1,-8.2479644E-4,3.2687163E-1,-1.4368261E-1,9.436307E-2,-8.143167E-2,4.2006445E-1,-6.0179878E-2,1.4630924E-1,-9.004555E-2,3.8774094E-1,2.231728E-1,-2.6983556E-1,2.8948268E-1,-2.4522771E-1,-4.4028327E-1,-1.1768068E-2,5.7600353E-2,-3.5786134E-1,-2.6216793E-1,2.9878777E-1,4.36991E-2,-8.060568E-2,6.9026016E-2,3.101059E-1,-3.5914758E-3,-7.380865E-2,-4.747628E-2,1.468212E-1,-3.2387418E-1,5.6616303E-2,-1.2303894E-2,3.5571507E-1,-2.895855E-1,3.0256838E-1,3.929832E-1,-1.1340377E-1,2.0971428E-1,-3.361045E-1,-3.9099935E-1,-7.3865936E-3,2.4782544E-1,-1.6579399E-1],"categories":[],"categories_nodes":[],"categories_segments":[],"categories_sizes":[],"default_left":[0,0,0,0,0,0,0,0,0,0,0,0,0,0,0,0,0,0,0,0,0,0,0,0,0,0,0,0,0,0,0,0,0,0,0,0,0,0,0,0,0,0,0,0,0,0,0,0,0,0,0,0,0,0,0,0,0,0,0,0,0,0,0,0,0,0,0,0,0,0,0,0,0,0,0,0,0,0,0,0,0,0,0,0,0,0,0,0,0,0,0,0,0,0,0,0,0],"id":13,"left_children":[1,3,5,7,9,11,13,15,17,19,21,23,25,27,-1,29,31,33,35,37,39,41,43,45,47,49,51,-1,-1,53,55,57,-1,59,61,63,65,67,69,71,73,75,77,79,81,83,85,87,89,91,-1,93,95,-1,-1,-1,-1,-1,-1,-1,-1,-1,-1,-1,-1,-1,-1,-1,-1,-1,-1,-1,-1,-1,-1,-1,-1,-1,-1,-1,-1,-1,-1,-1,-1,-1,-1,-1,-1,-1,-1,-1,-1,-1,-1,-1,-1],"loss_changes":[6.4024763E0,8.324886E0,9.850626E0,9.613783E0,8.171606E0,1.1307405E1,5.581888E0,9.739622E0,8.966822E0,6.939969E0,7.710864E0,9.062218E0,9.612976E0,2.866562E0,0E0,9.05869E0,9.272207E0,7.920123E0,6.565317E0,5.295434E0,6.9164777E0,1.3052153E1,1.1065132E1,9.758802E0,9.464554E0,6.558722E0,1.0426437E1,0E0,0E0,7.9755964E0,8.9662457E-1,8.653156E0,0E0,4.378544E0,8.445785E0,6.068325E0,3.8498313E0,4.0822587E0,1.7950401E0,5.863828E0,5.8181887E0,1.246291E1,1.1535717E1,1.0056595E1,1.322584E1,7.414991E0,9.156974E0,6.5084395E0,4.679985E0,3.703908E0,0E0,6.3450127E0,1.1676482E1,0E0,0E0,0E0,0E0,0E0,0E0,0E0,0E0,0E0,0E0,0E0,0E0,0E0,0E0,0E0,0E0,0E0,0E0,0E0,0E0,0E0,0E0,0E0,0E0,0E0,0E0,0E0,0E0,0E0,0E0,0E0,0E0,0E0,0E0,0E0,0E0,0E0,0E0,0E0,0E0,0E0,0E0,0E0,0E0],"parents":[2147483647,0,0,1,1,2,2,3,3,4,4,5,5,6,6,7,7,8,8,9,9,10,10,11,11,12,12,13,13,15,15,16,16,17,17,18,18,19,19,20,20,21,21,22,22,23,23,24,24,25,25,26,26,29,29,30,30,31,31,33,33,34,34,35,35,36,36,37,37,38,38,39,39,40,40,41,41,42,42,43,43,44,44,45,45,46,46,47,47,48,48,49,49,51,51,52,52],"right_children":[2,4,6,8,10,12,14,16,18,20,22,24,26,28,-1,30,32,34,36,38,40,42,44,46,48,50,52,-1,-1,54,56,58,-1,60,62,64,66,68,70,72,74,76,78,80,82,84,86,88,90,92,-1,94,96,-1,-1,-1,-1,-1,-1,-1,-1,-1,-1,-1,-1,-1,-1,-1,-1,-1,-1,-1,-1,-1,-1,-1,-1,-1,-1,-1,-1,-1,-1,-1,-1,-1,-1,-1,-1,-1,-1,-1,-1,-1,-1,-1,-1],"split_conditions":[1.4115913E0,-1.0747988E0,1.4671724E0,2.7256565E-2,-1.9831462E0,1.0007585E-1,7.788281E-1,-1.1431234E0,9.6148366E-1,-1.7677894E-1,-4.0775415E-1,4.6351552E-1,-1.3150046E0,-7.8059655E-1,1.3265194E-1,1.0643905E0,1.8875687E0,-1.3289764E0,1.1822513E0,-8.515633E-1,2.2070085E-1,3.9470053E-1,1.1097779E0,-4.2422354E-1,-7.401272E-1,-1.0876738E-1,8.693498E-3,2.1014217E-2,-4.6594653E-1,-8.641875E-1,-4.8864987E-1,-9.991404E-1,-3.7225038E-1,-7.5602174E-1,1.5314469E-1,-1.3043411E0,-5.074957E-1,-4.152751E-2,1.0642364E0,-2.6900095E-1,-9.3900985E-1,2.9517338E-1,1.1346196E0,3.321024E-1,-1.162573E-1,2.776998E-1,9.0019166E-1,1.7927691E-1,1.5860013E0,-9.65502E-1,4.0016222E-1,5.426357E-1,-4.231591E-1,2.209759E-1,-3.5597733E-1,-8.2479644E-4,3.2687163E-1,-1.4368261E-1,9.436307E-2,-8.143167E-2,4.2006445E-1,-6.0179878E-2,1.4630924E-1,-9.004555E-2,3.8774094E-1,2.231728E-1,-2.6983556E-1,2.8948268E-1,-2.4522771E-1,-4.4028327E-1,-1.1768068E-2,5.7600353E-2,-3.5786134E-1,-2.6216793E-1,2.9878777E-1,4.36991E-2,-8.060568E-2,6.9026016E-2,3.101059E-1,-3.5914758E-3,-7.380865E-2,-4.747628E-2,1.468212E-1,-3.2387418E-1,5.6616303E-2,-1.2303894E-2,3.5571507E-1,-2.895855E-1,3.0256838E-1,3.929832E-1,-1.1340377E-1,2.0971428E-1,-3.361045E-1,-3.9099935E-1,-7.3865936E-3,2.4782544E-1,-1.6579399E-1],"split_indices":[704,108,139,659,224,248,172,451,786,661,39,139,633,144,0,7,514,377,341,754,114,310,616,764,10,707,272,0,0,760,233,645,0,777,602,669,418,194,29,364,664,230,177,79,706,604,455,244,754,436,0,606,738,0,0,0,0,0,0,0,0,0,0,0,0,0,0,0,0,0,0,0,0,0,0,0,0,0,0,0,0,0,0,0,0,0,0,0,0,0,0,0,0,0,0,0,0],"split_type":[0,0,0,0,0,0,0,0,0,0,0,0,0,0,0,0,0,0,0,0,0,0,0,0,0,0,0,0,0,0,0,0,0,0,0,0,0,0,0,0,0,0,0,0,0,0,0,0,0,0,0,0,0,0,0,0,0,0,0,0,0,0,0,0,0,0,0,0,0,0,0,0,0,0,0,0,0,0,0,0,0,0,0,0,0,0,0,0,0,0,0,0,0,0,0,0,0],"sum_hessian":[1.7878336E3,1.6476284E3,1.4020526E2,2.2682124E2,1.4208071E3,1.2951236E2,1.06929E1,1.22530975E2,1.0429027E2,3.1883228E1,1.388924E3,7.049246E1,5.90199E1,9.131081E0,1.5618198E0,1.8680683E1,1.03850296E2,7.8329834E1,2.5960428E1,1.3467632E1,1.8415596E1,4.6504303E2,9.238809E2,5.090642E1,1.9586044E1,6.704373E0,5.231553E1,1.1422136E0,7.988867E0,1.5823433E1,2.8572493E0,1.000903E2,3.7599933E0,8.582474E0,6.974736E1,2.207439E1,3.886037E0,3.1493375E0,1.0318295E1,1.0906554E1,7.5090423E0,3.0183932E2,1.6320372E2,7.959184E2,1.2796251E2,1.870235E1,3.2204067E1,5.611237E0,1.3974808E1,2.8163087E0,3.888064E0,2.412566E1,2.8189867E1,1.8275092E0,1.3995924E1,1.0146899E0,1.8425593E0,1.5449992E1,8.464031E1,1.5883589E0,6.994115E0,3.7242027E1,3.2505337E1,2.3247874E0,1.9749603E1,1.5280396E0,2.3579974E0,1.583765E0,1.5655726E0,9.295239E0,1.0230558E0,5.136776E0,5.7697787E0,1.3255668E0,6.1834755E0,1.829014E2,1.1893791E2,1.4360088E2,1.9602837E1,5.1002188E2,2.858965E2,5.3495075E1,7.446743E1,1.195305E1,6.7493024E0,2.5209017E1,6.995051E0,4.0555162E0,1.5557208E0,1.2548018E1,1.4267889E0,1.0007125E0,1.8155962E0,1.9278633E1,4.847028E0,7.6144967E0,2.057537E1],"tree_param":{"num_deleted":"0","num_feature":"801","num_nodes":"97","size_leaf_vector":"1"}},{"base_weights":[-1.5542471E-4,1.1300665E-1,-3.2638308E-2,-1.1318173E0,1.331299E-1,1.1558411E-1,-7.7620976E-2,1.9861465E-2,-4.2471567E-1,3.28938E-1,6.1831037E-3,1.456921E-1,-9.245095E-1,-1.9855852E-1,1.9831767E-2,8.471729E-1,1.9587378E-1,-1.1228542E0,4.1374505E-2,3.16948E-1,-1.764324E-2,-1.3598557E0,3.0668542E-1,-6.506688E-2,-3.7691018E-1,1.9414985E-1,-8.8168606E-2,1.0162435E0,-6.573208E-1,-1.8063644E-1,3.999544E-1,-8.800908E-4,-4.230623E-1,-2.1753311E-1,1.9204599E-1,1.2614774E0,2.2957006E-1,-2.6868197E-1,1.9690426E-1,-1.0589192E-1,-4.439701E-1,2.8235748E-1,-1.5884058E-1,5.2071504E-5,-7.1498436E-1,7.257934E-2,-4.733409E-1,2.7736503E-1,-4.2001116E-1,-2.5906244E-1,6.921329E-2,3.49169E-1,-1.7889646E-1,-3.5597116E-1,1.03570454E-1,1.6992454E-1,-1.4605018E-1,1.7307557E-1,-7.463076E-2,1.4532542E-1,-1.1522116E-1,-2.4643028E-2,1.4026275E-1,-7.507686E-2,4.2793918E-1,-2.0518914E-2,1.3689578E-1,-2.2802167E-1,-1.022838E-2,2.5297928E-1,-1.6556788E-2,-1.34881E-1,2.8968873E-2,2.5297013E-1,-2.7156258E-1,-6.0132213E-2,3.0406895E-1,2.132968E-1,-1.5458961E-1,-1.5387575E-2,1.2765586E-1,4.0815618E-2,-3.0432665E-1,-1.3532293E-1,2.4118887E-2,-1.38758635E-2,2.1191074E-1],"categories":[],"categories_nodes":[],"categories_segments":[],"categories_sizes":[],"default_left":[0,0,0,0,0,0,0,0,0,0,0,0,0,0,0,0,0,0,0,0,0,0,0,0,0,0,0,0,0,0,0,0,0,0,0,0,0,0,0,0,0,0,0,0,0,0,0,0,0,0,0,0,0,0,0,0,0,0,0,0,0,0,0,0,0,0,0,0,0,0,0,0,0,0,0,0,0,0,0,0,0,0,0,0,0,0,0],"id":14,"left_children":[1,3,5,7,9,11,13,-1,-1,15,17,19,21,23,25,27,29,31,33,35,37,39,41,43,45,47,49,51,53,55,57,-1,-1,59,61,63,65,67,69,-1,-1,-1,-1,71,73,75,77,79,81,83,85,-1,-1,-1,-1,-1,-1,-1,-1,-1,-1,-1,-1,-1,-1,-1,-1,-1,-1,-1,-1,-1,-1,-1,-1,-1,-1,-1,-1,-1,-1,-1,-1,-1,-1,-1,-1],"loss_changes":[6.506798E0,1.0040249E1,9.179097E0,2.2656622E0,9.6775875E0,1.0174873E1,1.2446589E1,0E0,0E0,1.0394657E1,9.4735565E0,8.745808E0,5.3246646E0,1.1193935E1,1.1040834E1,8.55015E0,9.535412E0,2.3152952E0,9.055323E0,1.230341E1,8.717662E0,3.174801E-1,2.2002087E0,1.1456536E1,8.768194E0,1.1580495E1,9.76042E0,7.420336E0,2.392888E0,1.0335755E1,9.347971E0,0E0,0E0,1.0177326E1,1.1111524E1,3.524023E0,9.550068E0,8.568519E0,1.4274698E1,0E0,0E0,0E0,0E0,1.0764373E1,8.070665E0,9.569845E0,8.617126E0,9.670026E0,9.116512E0,1.1369438E1,1.3963934E1,0E0,0E0,0E0,0E0,0E0,0E0,0E0,0E0,0E0,0E0,0E0,0E0,0E0,0E0,0E0,0E0,0E0,0E0,0E0,0E0,0E0,0E0,0E0,0E0,0E0,0E0,0E0,0E0,0E0,0E0,0E0,0E0,0E0,0E0,0E0,0E0],"parents":[2147483647,0,0,1,1,2,2,3,3,4,4,5,5,6,6,9,9,10,10,11,11,12,12,13,13,14,14,15,15,16,16,17,17,18,18,19,19,20,20,21,21,22,22,23,23,24,24,25,25,26,26,27,27,28,28,29,29,30,30,33,33,34,34,35,35,36,36,37,37,38,38,43,43,44,44,45,45,46,46,47,47,48,48,49,49,50,50],"right_children":[2,4,6,8,10,12,14,-1,-1,16,18,20,22,24,26,28,30,32,34,36,38,40,42,44,46,48,50,52,54,56,58,-1,-1,60,62,64,66,68,70,-1,-1,-1,-1,72,74,76,78,80,82,84,86,-1,-1,-1,-1,-1,-1,-1,-1,-1,-1,-1,-1,-1,-1,-1,-1,-1,-1,-1,-1,-1,-1,-1,-1,-1,-1,-1,-1,-1,-1,-1,-1,-1,-1,-1,-1],"split_conditions":[-7.4769676E-1,-2.186625E0,-7.328663E-1,-1.0623933E0,-2.515935E-1,1.9384208E0,-1.2740915E-1,1.9861465E-2,-4.2471567E-1,-9.1193515E-1,-1.800049E0,-6.1104145E-2,6.226198E-1,1.8307903E-1,-3.4151605E-1,1.4690007E0,-5.1073146E-1,-9.6674603E-1,-3.9744407E-1,-1.453833E0,-8.460213E-2,-1.1824166E0,3.3953553E-1,1.3347738E0,-9.1522413E-1,1.1736606E0,-6.054417E-2,1.6096971E0,-3.1469878E-2,-7.573135E-1,8.3938104E-1,-8.800908E-4,-4.230623E-1,-8.702496E-1,2.5249267E-2,-1.1801834E0,-1.8662699E-1,-5.544941E-1,-6.521032E-1,-1.0589192E-1,-4.439701E-1,2.8235748E-1,-1.5884058E-1,-9.83069E-1,-1.2557424E0,7.535802E-1,-1.9620988E0,-4.845272E-1,1.3579804E-1,4.631281E-1,9.885508E-1,3.49169E-1,-1.7889646E-1,-3.5597116E-1,1.03570454E-1,1.6992454E-1,-1.4605018E-1,1.7307557E-1,-7.463076E-2,1.4532542E-1,-1.1522116E-1,-2.4643028E-2,1.4026275E-1,-7.507686E-2,4.2793918E-1,-2.0518914E-2,1.3689578E-1,-2.2802167E-1,-1.022838E-2,2.5297928E-1,-1.6556788E-2,-1.34881E-1,2.8968873E-2,2.5297013E-1,-2.7156258E-1,-6.0132213E-2,3.0406895E-1,2.132968E-1,-1.5458961E-1,-1.5387575E-2,1.2765586E-1,4.0815618E-2,-3.0432665E-1,-1.3532293E-1,2.4118887E-2,-1.38758635E-2,2.1191074E-1],"split_indices":[651,693,136,242,673,174,656,0,0,210,759,656,545,161,459,748,525,315,464,179,343,10,49,113,735,241,435,118,397,17,440,0,0,740,95,22,591,475,654,0,0,0,0,246,377,220,282,110,133,628,326,0,0,0,0,0,0,0,0,0,0,0,0,0,0,0,0,0,0,0,0,0,0,0,0,0,0,0,0,0,0,0,0,0,0,0,0],"split_type":[0,0,0,0,0,0,0,0,0,0,0,0,0,0,0,0,0,0,0,0,0,0,0,0,0,0,0,0,0,0,0,0,0,0,0,0,0,0,0,0,0,0,0,0,0,0,0,0,0,0,0,0,0,0,0,0,0,0,0,0,0,0,0,0,0,0,0,0,0,0,0,0,0,0,0,0,0,0,0,0,0,0,0,0,0,0,0],"sum_hessian":[1.7681538E3,3.937947E2,1.3743591E3,5.3857865E0,3.884089E2,3.1961755E2,1.0547416E3,1.1786907E0,4.207096E0,1.5214417E2,2.3626474E2,3.114615E2,8.15607E0,4.7019653E2,5.8454504E2,2.9987505E1,1.22156654E2,6.207392E0,2.3005736E2,1.5158513E2,1.5987636E2,5.9482794E0,2.2077909E0,2.6969876E2,2.0049777E2,2.2331142E2,3.6123364E2,2.7249784E1,2.7377207E0,4.297906E1,7.91776E1,1.4737729E0,4.733619E0,8.446774E1,1.4558961E2,1.1697848E1,1.3988728E2,7.35566E1,8.631976E1,1.0533748E0,4.8949046E0,1.1838326E0,1.0239582E0,2.4604593E2,2.3652828E1,3.545938E1,1.6503839E2,1.9714749E2,2.616393E1,1.7287283E2,1.883608E2,2.5218872E1,2.0309124E0,1.6716892E0,1.0660316E0,1.2247685E1,3.0731377E1,6.2294952E1,1.6882643E1,1.5831134E1,6.8636604E1,7.331965E1,7.226996E1,1.100194E0,1.0597654E1,6.0752293E1,7.9134995E1,2.3044739E1,5.051186E1,2.3562138E1,6.2757626E1,4.283129E1,2.0321463E2,2.1998613E0,2.1452969E1,2.8094843E1,7.364539E0,5.1012583E0,1.5993713E2,6.1460667E1,1.3568681E2,1.3916425E1,1.2247506E1,1.1020618E2,6.2666664E1,1.6024788E2,2.8112913E1],"tree_param":{"num_deleted":"0","num_feature":"801","num_nodes":"87","size_leaf_vector":"1"}},{"base_weights":[-2.9042605E-4,-3.6235206E-2,1.0013747E-1,2.3725288E-2,-1.4614572E-1,2.1198197E-1,-1.4043103E-1,3.641332E-2,-7.749205E-1,-3.1620267E-1,7.1115214E-3,1.2320009E-1,5.862631E-1,-2.042115E-1,9.4155204E-1,2.4906894E-2,1.0068567E0,3.1380954E-1,-1.182824E0,-1.894577E-1,-6.8194515E-1,-8.238682E-1,6.783605E-2,4.323161E-1,-3.5388034E-2,-9.286973E-1,6.989594E-1,-2.9088238E-1,4.7864136E-1,-1.1419115E-1,4.021694E-1,1.5439437E-1,-6.523776E-2,4.116194E-1,5.8045577E-2,2.9867265E-1,-2.6503623E-1,1.0546608E-2,-4.2469952E-1,-2.416443E-1,9.1695315E-1,-8.4271866E-1,2.7810758E-1,2.677471E-1,-1.1916053E0,-1.7319785E-2,6.0576326E-1,-2.2582507E-1,6.109891E-1,1.7133537E-1,-2.9820427E-1,2.075557E-2,-3.724149E-1,7.897505E-1,-7.116694E-1,4.844381E-1,-3.7918353E-1,-6.375136E-1,9.453351E-1,2.2563653E-1,-2.8240514E-1,3.316663E-2,3.014323E-1,-1.4674011E-1,-6.08425E-3,2.620671E-1,-2.5548542E-1,-4.8128318E-2,-2.770951E-1,3.88078E-1,-1.77695E-1,4.485061E-2,-3.02679E-1,3.3714855E-1,-1.4469482E-1,2.732684E-1,-2.1597198E-1,8.445181E-2,-4.056036E-1,5.3567365E-2,-7.904554E-2,2.4467038E-1,-1.6596052E-1,-2.6479232E-1,1.8380922E-1,2.9136315E-1,7.841428E-2,7.60251E-2,-2.8391522E-1,-1.3428953E-1,2.399488E-1,2.7489078E-1,-9.340437E-2,-3.3282173E-1,5.6367636E-2,-7.904796E-2,3.5907456E-1,3.2969543E-3,-1.7390752E-1,-3.763659E-1,1.6082557E-1,3.7274578E-1,-1.3323233E-1],"categories":[],"categories_nodes":[],"categories_segments":[],"categories_sizes":[],"default_left":[0,0,0,0,0,0,0,0,0,0,0,0,0,0,0,0,0,0,0,0,0,0,0,0,0,0,0,0,0,0,0,0,0,0,0,0,0,0,0,0,0,0,0,0,0,0,0,0,0,0,0,0,0,0,0,0,0,0,0,0,0,0,0,0,0,0,0,0,0,0,0,0,0,0,0,0,0,0,0,0,0,0,0,0,0,0,0,0,0,0,0,0,0,0,0,0,0,0,0,0,0,0,0],"id":15,"left_children":[1,3,5,7,9,11,13,15,17,19,21,23,25,27,29,31,33,35,37,39,41,43,45,47,49,51,53,55,57,59,-1,61,63,-1,65,-1,-1,-1,-1,67,69,71,73,75,77,79,81,83,85,87,89,-1,-1,91,93,95,97,99,101,-1,-1,-1,-1,-1,-1,-1,-1,-1,-1,-1,-1,-1,-1,-1,-1,-1,-1,-1,-1,-1,-1,-1,-1,-1,-1,-1,-1,-1,-1,-1,-1,-1,-1,-1,-1,-1,-1,-1,-1,-1,-1,-1,-1],"loss_changes":[6.323912E0,8.505545E0,1.2453674E1,8.495353E0,1.187401E1,1.0415047E1,1.0346686E1,9.170038E0,6.194215E0,9.881084E0,1.2195176E1,1.2582555E1,1.0934534E1,8.411657E0,3.67868E0,9.521422E0,3.2551966E0,4.4416647E0,2.8142872E0,9.561204E0,8.752977E0,6.925997E0,1.0322238E1,1.0368637E1,9.306665E0,1.5213795E0,7.816452E0,8.717796E0,9.000067E0,3.0132744E0,0E0,1.2367843E1,9.158558E0,0E0,3.5028336E0,0E0,0E0,0E0,0E0,8.451665E0,5.0264335E0,7.987995E0,6.116748E0,3.8088536E0,3.3330708E0,9.464878E0,7.9387407E0,1.1173822E1,8.397343E0,9.046326E0,1.272413E1,0E0,0E0,7.7670403E0,1.6221466E0,7.3411627E0,8.805288E0,4.547063E0,5.4115276E0,0E0,0E0,0E0,0E0,0E0,0E0,0E0,0E0,0E0,0E0,0E0,0E0,0E0,0E0,0E0,0E0,0E0,0E0,0E0,0E0,0E0,0E0,0E0,0E0,0E0,0E0,0E0,0E0,0E0,0E0,0E0,0E0,0E0,0E0,0E0,0E0,0E0,0E0,0E0,0E0,0E0,0E0,0E0,0E0],"parents":[2147483647,0,0,1,1,2,2,3,3,4,4,5,5,6,6,7,7,8,8,9,9,10,10,11,11,12,12,13,13,14,14,15,15,16,16,17,17,18,18,19,19,20,20,21,21,22,22,23,23,24,24,25,25,26,26,27,27,28,28,29,29,31,31,32,32,34,34,39,39,40,40,41,41,42,42,43,43,44,44,45,45,46,46,47,47,48,48,49,49,50,50,53,53,54,54,55,55,56,56,57,57,58,58],"right_children":[2,4,6,8,10,12,14,16,18,20,22,24,26,28,30,32,34,36,38,40,42,44,46,48,50,52,54,56,58,60,-1,62,64,-1,66,-1,-1,-1,-1,68,70,72,74,76,78,80,82,84,86,88,90,-1,-1,92,94,96,98,100,102,